Version 8.6.1
Id 
Min label:-50
Max label:50
bits:18
lda:0
0 ngram:
0 skip:
options: --hash_seed 0 --binary --link identity
Checksum: 3221940710
:0
72:-0.116814
107:-0.103325
197:0.115925
217:-0.163731
220:0.314559
222:-0.183931
926:0.00748928
968:0.0362727
1015:0.0486842
1171:0.113191
1250:-0.040526
1255:0.116535
1321:-0.226909
1335:0.0988198
1472:0.123627
1652:-0.0542932
1657:0.167148
1692:0.099775
1891:0.116332
1903:-0.0971996
1975:0.109501
2115:-0.088207
2156:0.117617
2209:-0.110556
2236:0.205897
2436:-0.111506
2552:-0.327995
2556:-0.122741
2564:0.116653
2698:0.197322
2799:0.0869898
2923:-0.241091
2987:-0.163098
3078:0.341122
3080:-0.0575236
3162:-0.0243784
3176:0.0581467
3182:-0.0563508
3258:0.116692
3290:0.0956147
3324:-0.325369
3360:-0.116756
3365:0.219226
3408:0.199914
3592:0.0309022
3662:-0.424996
3801:0.00399182
4144:0.0456118
4159:0.187134
4163:0.196609
4196:-0.0680841
4233:-0.08702
4343:0.0287816
4456:-0.515524
4473:-0.0468329
4478:0.31259
4537:-0.116536
4675:-0.185218
4706:0.116326
4776:0.246458
4807:-0.0935753
4910:0.110606
4911:-0.114336
5116:0.117082
5246:-0.163315
5315:0.0595806
5317:-0.104064
5389:0.171379
5501:-0.0671364
5508:0.00906373
5538:-0.666395
5953:0.158638
5975:-0.11744
5996:0.13603
6041:0.11074
6061:0.0198614
6332:0.200983
6482:0.0139857
6692:0.116369
6883:-0.11786
6908:0.237305
6909:0.0734955
7099:0.29776
7152:0.11677
7166:-0.0332422
7238:0.07764
7510:-0.0459655
7528:0.0443038
7616:-0.015867
7637:-0.0818262
7727:0.128483
7781:0.289841
7800:0.207466
7841:-0.192365
8110:0.065529
8157:-0.290848
8174:0.0354346
8296:0.174998
8369:0.25342
8409:0.117948
8443:0.0957203
8608:0.107064
8771:-0.0019295
8813:0.119742
8880:0.117402
8926:0.0957703
8976:0.0726112
9031:-0.275814
9075:0.0222662
9081:-0.116702
9101:0.200331
9249:0.193408
9257:0.0759551
9326:0.226296
9447:-0.103107
9524:0.144848
9575:0.335062
9579:0.233802
9594:0.123928
9657:0.0675956
9772:-0.277673
9829:-0.203965
9841:0.208094
9869:0.128793
9890:-0.117099
9936:0.032806
10144:0.11644
10273:0.121069
10370:-0.173161
10445:-0.244671
10628:-0.224674
10631:-0.0432341
10640:0.018402
10719:0.0267051
10769:0.187905
10810:-0.257037
10947:-0.4023
10961:-0.00554787
11013:-0.0909406
11049:0.0299255
11130:0.267036
11140:0.385686
11169:0.127214
11194:0.250631
11349:-0.183368
11538:0.00291304
11711:0.117731
11714:-0.345431
11772:-0.0234685
11778:0.280936
11794:-0.197188
11801:-0.115295
11839:-0.162591
12085:0.210089
12101:-0.0506619
12205:-0.168366
12315:-0.262602
12392:0.213658
12406:0.00525395
12498:0.00604381
12729:0.0803835
12800:0.276305
12881:0.149177
12942:0.233764
13036:-0.118592
13148:-0.0596422
13178:-0.133695
13378:0.119177
13421:-0.114096
13433:0.460334
13440:0.116653
13464:0.115617
13466:0.118478
13480:-0.116445
13644:0.116574
13723:0.115877
13781:0.117094
13793:0.117539
13837:0.287324
13880:0.239263
13893:0.0694505
13902:-0.0127579
13988:0.119747
14046:-0.119194
14065:0.117242
14146:0.116685
14217:0.0527573
14220:0.00950594
14231:-0.126831
14311:-0.00235484
14319:0.282636
14430:-0.722438
14440:0.0386492
14499:0.127521
14567:0.00101489
14640:-0.18938
14648:0.0302893
14650:0.0528521
14710:0.116531
14756:0.119587
14838:0.1112
14946:0.0385996
15013:0.116869
15022:-0.055612
15150:-0.161734
15205:-0.116995
15240:-0.1882
15255:-0.211926
15488:0.157368
15504:0.246033
15663:0.064798
15843:-0.116972
15890:-0.199497
16034:0.130958
16080:0.109764
16159:-0.203468
16227:-0.233365
16298:-0.0654045
16299:-0.12751
16374:0.173733
16436:0.260925
16460:-0.114292
16512:0.137945
16552:0.178629
16589:-0.130416
16703:0.116006
16766:-0.0161593
16857:0.097964
17129:-0.295382
17158:-0.0864082
17371:-0.32066
17388:0.0603916
17433:0.134242
17481:0.203556
17578:0.0406919
17778:-0.116994
17863:-0.252923
18051:-0.335976
18087:0.258922
18133:-0.214499
18205:-0.176148
18225:0.118291
18276:0.00457706
18307:0.151097
18351:0.319645
18389:0.14579
18464:0.105495
18466:-0.118044
18548:-0.161069
18828:-0.201727
18878:0.119638
19110:-0.0689268
19125:0.119824
19292:-0.112003
19306:0.284031
19362:0.115961
19371:0.25411
19535:-0.195557
19718:-0.11739
19725:-0.0783503
19726:-0.452192
19841:-0.109401
19930:0.0414839
19985:-0.0918914
20076:-0.117302
20100:0.120896
20212:0.117387
20214:0.107206
20217:0.127711
20239:0.0102588
20344:-0.126079
20374:-0.0786859
20467:-0.0678397
20574:0.222218
20579:0.330939
20616:0.119178
20712:-0.248491
20789:0.015719
20813:-0.295683
20948:0.141022
21080:0.0873013
21137:-0.327596
21172:0.225696
21324:0.0557947
21373:0.11032
21398:0.116703
21426:0.227725
21447:0.0611984
21499:0.0171581
21537:0.0613752
21674:-0.0648322
21879:0.332717
21918:0.0780364
22267:0.240807
22297:0.0746293
22588:0.0592679
22728:0.150321
22789:-0.137373
23036:-0.143941
23049:0.116874
23069:-0.117027
23169:-0.117457
23198:-0.0963703
23239:-0.232447
23247:-0.189987
23249:-0.329943
23277:0.118679
23416:0.594668
23603:-0.0749748
23610:0.151884
23650:-0.118844
23656:0.116889
23685:-0.178015
23738:-0.520865
23783:0.173446
23826:0.117702
23877:-0.0116811
23944:0.116182
23985:0.116246
24006:0.118788
24165:-0.0684946
24340:-0.0637908
24431:-0.312872
24438:0.201674
24534:-0.0948439
24569:0.0609889
24696:-0.124364
24773:-0.116886
24781:0.210128
24931:0.066642
24960:0.144854
25124:-0.226927
25191:-0.190218
25264:0.113304
25307:0.140181
25385:-0.22988
25411:0.244382
25435:-0.214433
25448:-0.0968564
25782:0.213235
25808:0.0839359
26083:0.177657
26169:0.0866577
26234:0.151824
26317:-0.0165312
26392:-0.951659
26491:0.207731
26497:-0.0422243
26549:0.117229
26657:-0.042979
26804:-0.291959
26893:0.0134834
26912:0.0794828
27126:-0.0655276
27127:0.0858646
27143:-0.179893
27201:0.267313
27242:-0.166096
27266:-0.116897
27296:0.0723495
27326:-0.174642
27414:0.136018
27704:-0.316572
27843:-0.180234
27862:-0.159224
28060:0.203189
28072:-0.196548
28153:-0.198723
28221:-0.0570752
28232:-0.0726746
28263:-0.0633322
28273:0.223446
28507:0.162369
28659:0.116273
28706:0.212642
28720:0.117427
28733:-0.0281934
28740:0.0582161
28811:0.370565
28925:0.116955
28934:-0.0956017
29016:0.170419
29055:0.100727
29072:-0.184986
29176:-0.0777061
29227:0.149452
29259:-0.162969
29340:0.0359797
29377:0.0996171
29498:0.00187532
29558:0.18679
30040:-0.101379
30056:0.116337
30121:-0.314314
30167:-0.35335
30222:1.33033
30230:0.277314
30409:0.0291544
30440:-0.0163864
30447:0.165326
30500:0.31585
30511:0.14589
30555:0.109836
30912:0.137506
30933:-0.0192125
30984:-0.0589955
31090:0.169053
31296:0.385612
31331:0.188158
31383:-0.21752
31406:0.228059
31426:-0.133257
31473:0.115726
31590:-0.0928558
31632:0.0504826
31768:-8.49782e-05
31902:0.116789
31903:-0.0693348
31909:-0.0483697
31930:-0.160938
31937:0.116588
31960:-0.199234
31976:0.340305
32011:-0.133804
32012:0.212014
32039:0.14133
32120:0.00977973
32167:0.0500307
32173:0.0089254
32193:-0.118061
32204:-0.168661
32281:0.138097
32284:-0.108982
32286:0.12346
32301:0.161684
32305:0.218056
32358:-0.118689
32363:-0.264721
32377:-0.0989937
32477:-0.0288575
32584:-0.00774706
32643:-0.346593
32803:0.0892793
32813:0.170925
33011:0.364614
33042:0.0190881
33063:-0.260457
33199:-0.0192125
33203:-0.0168657
33449:-0.116882
33482:-0.0534051
33598:0.117182
33672:-0.172398
33706:-0.0290687
33729:0.253847
33748:-0.0129527
33852:0.119842
33910:0.00682529
34148:0.198925
34299:0.119282
34363:0.11674
34411:0.00955207
34415:-0.220713
34538:-0.0263979
34670:-0.461944
34676:-0.175694
34772:-0.115276
34846:-0.1957
34875:-4.35337e-06
34962:0.0732117
35146:0.0307291
35170:0.337131
35187:-0.179365
35262:0.128965
35397:0.140901
35448:-0.0908742
35547:0.0227304
35608:-0.0748161
35731:0.0841142
35762:0.00571252
35811:0.449466
35921:-0.158438
36037:-0.128059
36047:0.160229
36161:0.165875
36258:0.141295
36293:-0.031859
36408:-0.0355676
36466:-0.199932
36481:0.116832
36563:0.00142597
36581:0.124022
36594:-0.0379874
36613:-0.0460771
36634:-0.252228
36783:0.159167
36796:0.0570322
36830:0.183788
36876:-0.114228
36929:-0.194974
36999:0.116576
37152:-0.229198
37190:0.187156
37282:0.209312
37390:0.117884
37550:-0.227632
37690:0.224912
37759:-0.0245892
37852:0.202544
38038:0.000477254
38124:-0.238244
38205:-0.115933
38238:-0.00347228
38324:0.0356432
38332:-0.109162
38386:0.372384
38426:0.193573
38444:0.213311
38579:-0.146328
38692:0.234264
38733:0.374267
38790:-0.262849
38819:0.0117565
38886:0.0031436
39136:0.229341
39265:-0.598894
39348:0.127149
39392:0.0750454
39433:0.212757
39470:-0.258171
39497:0.189013
39550:-0.0460854
39586:0.133188
39641:0.0106144
39674:-0.116203
39707:0.273859
39793:0.0293409
39817:-0.129913
39979:0.228774
39992:-0.108741
40017:0.1773
40021:0.234627
40069:-0.0626895
40147:0.116547
40313:0.16006
40433:-0.0311943
40522:0.126706
40742:0.372452
40856:-0.117527
40944:-0.0227802
41054:0.0681233
41168:-0.0693341
41229:-0.16288
41249:0.00136047
41360:-0.0996973
41376:0.167905
41491:0.0296471
41536:-0.155753
41557:-0.16136
41597:-0.194424
41665:-0.286654
41696:-0.117227
41761:0.294765
41764:-0.100204
41808:0.00111711
41908:-0.0593293
42002:-0.0352302
42360:-0.0516765
42413:0.0460326
42650:0.0247547
42663:-0.118068
42703:-0.11744
42805:-0.0637917
42808:0.116809
42850:-0.049114
42912:0.137483
43013:0.116489
43107:0.402479
43211:-0.0961455
43227:0.11772
43613:-0.136758
43677:-0.0298367
43793:-0.0723988
43840:0.164764
43959:0.219369
44111:-0.349737
44167:-0.151849
44202:0.283196
44243:0.208212
44261:-0.0156506
44312:-0.0706532
44324:0.235588
44450:0.356618
44532:0.115776
44559:-0.181477
44720:-0.179989
44723:0.324415
44935:-0.338861
45018:0.1277
45026:-0.129203
45125:0.0870144
45165:0.0139204
45302:-0.080952
45304:0.0724635
45449:-0.078975
45467:-0.10042
45625:-0.328435
45632:0.113192
45680:-0.247014
45726:0.305659
45783:-0.0730028
45844:0.386102
45932:0.277864
45942:0.417312
45983:0.115727
46003:-0.0251391
46013:-0.0441642
46057:-0.236424
46109:0.209225
46210:-0.1165
46214:0.1933
46221:-0.0918078
46299:0.392889
46336:0.173739
46342:0.106672
46413:0.342015
46419:0.184291
46505:0.0751617
46611:0.302426
46672:0.0980038
46714:0.0022605
46730:0.119869
46733:-0.117644
46869:0.0442387
46881:-0.0610136
46970:-0.115219
47024:-0.118298
47087:-0.338297
47094:-0.047715
47136:0.128389
47148:-0.121496
47395:-0.263438
47509:0.0219593
47597:0.235536
47681:0.210072
47714:-0.212896
47835:0.00121492
47902:-0.118469
48018:-0.125212
48029:-0.100794
48120:0.0463025
48181:-0.343637
48260:-0.199347
48304:0.149252
48346:-0.0571579
48355:0.188266
48476:-0.0842152
48573:0.138921
48625:-0.119657
48679:0.483455
48725:0.115703
48860:-0.0205763
49130:-0.250584
49271:0.117213
49348:0.119597
49357:0.232597
49515:0.368898
49524:0.237688
49571:-0.0362076
49662:0.197704
49774:0.169231
49850:0.0641461
49892:0.282232
49959:0.117169
49969:0.171561
49994:0.119091
50063:-0.288829
50161:0.244294
50194:0.0552916
50196:-0.286151
50251:-0.0873783
50378:-0.228039
50396:0.0202785
50427:0.119266
50482:-0.363501
50508:0.10512
50511:-0.0278176
50539:0.244259
50548:0.0893952
50725:-0.180502
50940:-0.117474
50967:-0.187338
50991:0.0628391
51274:-0.117282
51482:-0.117119
51553:-0.404216
51562:-0.269006
51582:0.2326
51589:-0.116297
51597:0.103964
51639:0.217417
51640:0.172777
51717:0.21164
51806:0.117337
51968:0.0922468
51995:-0.116435
52004:0.206908
52174:0.188825
52186:0.105243
52209:0.120083
52242:0.0566115
52326:-0.349755
52393:0.110357
52495:-0.119711
52687:0.0262583
52705:0.223614
52715:0.0939888
52753:0.15452
52930:0.364521
52962:-0.235824
53002:-0.150132
53103:-0.117976
53169:0.0360655
53172:0.11642
53184:0.0423504
53214:0.00566101
53249:-0.0925683
53411:0.147935
53498:0.119671
53527:0.239927
53537:0.195679
53549:-0.329403
53775:-0.003079
53797:-0.0106951
53837:0.116944
53902:0.0361252
53995:0.156655
54004:0.148408
54053:-0.463349
54139:-0.0802118
54144:-0.117992
54189:0.331367
54193:-0.180027
54233:-0.298926
54278:-0.229727
54294:-0.123561
54316:-0.102043
54350:0.0455581
54396:0.0957425
54491:-0.117214
54548:-0.236472
54600:-0.368549
54703:0.122447
54715:-0.117306
54836:0.116843
54931:-0.267343
54957:0.145357
54998:0.15108
55132:-0.0867026
55194:0.00595821
55214:-0.166078
55230:0.200476
55233:-0.0959024
55466:0.271702
55490:-0.146568
55498:0.00372706
55533:0.217923
55584:-0.533395
55627:0.241725
55631:-0.114722
55653:0.0164349
55671:-4.87082e-06
55750:-0.281667
55852:0.0690638
55944:-0.0199105
56032:0.199859
56088:0.119406
56120:-0.274293
56158:0.100452
56161:0.0836883
56164:-0.0215464
56293:0.1257
56433:-0.071024
56436:0.19111
56485:0.119079
56555:-0.0654373
56587:-0.187063
56693:-0.0502131
56738:-0.417457
56762:-0.0721607
56854:0.0302052
56922:-0.116607
56988:-0.0461667
57024:0.229271
57026:-0.363917
57052:-0.110319
57067:-0.181541
57088:0.221128
57476:0.216788
57517:0.443732
57604:0.178054
58012:-0.0516393
58123:-0.119477
58355:0.13503
58391:-0.0522383
58507:0.285608
58583:0.176148
58598:-0.065795
58667:0.116639
58687:0.116883
58721:-0.213988
58731:0.252353
58773:0.0207848
58814:-0.104747
58862:-0.318484
58881:0.0226592
58939:-0.00516003
58946:0.225503
58982:-0.117899
59064:-0.0675487
59077:0.0987037
59113:0.220037
59223:0.255206
59275:0.117334
59305:0.549271
59340:0.116695
59508:-0.0713524
59548:0.0257909
59585:0.000397101
59688:0.379246
59739:0.115241
59895:0.113685
60001:0.217921
60036:-0.262047
60146:0.195373
60224:-0.0871967
60370:0.152658
60504:0.131794
60505:0.297918
60548:0.00584402
60693:0.225134
61137:-0.132498
61183:0.116772
61243:-0.0481119
61467:-0.180819
61525:-0.00190689
61556:0.195387
61596:0.11653
61710:-0.0522348
61781:0.147234
61840:0.203563
61960:0.120663
62026:0.317978
62112:-0.321458
62119:0.000861824
62202:0.0272401
62308:0.272073
62333:0.116481
62487:0.0952672
62573:-0.117252
62581:0.280081
62673:-0.158427
62699:-0.00995335
62860:-0.12246
62870:0.0610656
62938:-0.19932
63053:0.0336146
63072:-0.00132377
63092:-0.117787
63157:0.0979958
63159:-0.306925
63215:-0.18692
63226:-0.105587
63292:0.128978
63390:0.183505
63459:-0.522062
63505:0.215954
63719:0.117799
63799:0.00500415
63932:0.246712
64002:-0.117571
64015:0.197599
64026:-0.0718357
64343:-0.117341
64364:-0.481146
64561:0.141452
64656:-0.112716
64727:0.215425
64757:0.0736837
64760:0.116443
64819:-0.0777873
64836:0.252904
64865:-0.112778
65010:-0.0206268
65020:-0.0143617
65166:-0.402429
65386:-0.264587
65417:0.0948227
65476:-0.117259
65569:-0.305351
65668:-0.331529
65750:-0.0867714
65887:-0.0910696
65954:0.0733062
65968:-0.274082
66002:0.161063
66021:-0.178595
66093:0.328542
66125:-0.504667
66173:-0.069304
66207:0.214632
66325:-0.117529
66466:-0.00835548
66586:0.239411
66629:-0.163798
66836:0.00516542
66966:-0.10961
66990:-0.175947
67089:-0.117138
67163:-0.160858
67258:-0.29458
67397:-0.184669
67408:-0.193393
67441:0.202205
67660:0.1146
67805:0.0433172
67985:0.179471
68249:0.0574604
68316:-0.0203336
68352:0.623074
68384:-0.117153
68459:0.230971
68504:0.117204
68608:0.119815
68636:0.11702
68735:-0.150277
68782:-0.0150887
68862:0.27121
69007:0.293605
69214:0.129873
69237:-0.334481
69366:-0.0855885
69400:0.108532
69402:0.105123
69444:-0.0706339
69518:-0.0773995
69519:0.206572
69603:0.168464
69618:0.0123419
69637:0.116624
69647:0.313343
69755:0.0836135
69872:0.019805
69882:-0.270298
69924:-0.234677
69966:0.371516
70021:0.12755
70048:-0.120025
70084:0.292452
70092:-0.144074
70188:0.13755
70251:-0.0444891
70277:0.116547
70342:0.120408
70364:-0.219442
70398:0.181077
70408:0.155927
70440:0.0948167
70457:-0.117845
70465:0.101218
70492:0.0102798
70506:0.117876
70525:-0.384972
70553:0.117117
70624:-0.163585
70635:0.116867
70696:0.000160009
70725:0.257766
70862:-0.0773988
71187:0.132275
71280:0.116383
71443:0.118986
71464:-0.0635199
71569:-0.177333
71612:-0.563822
71626:0.191532
71801:0.338672
71836:-0.357624
71876:-0.0244026
71920:0.229427
71982:0.120023
72031:0.0424345
72040:0.230446
72059:0.0376673
72060:0.229341
72073:0.321366
72125:0.348263
72164:-0.392795
72167:-0.157246
72233:0.120033
72320:0.216143
72447:0.11648
72452:-0.486736
72466:0.145445
72540:0.231348
72625:0.220571
72626:0.116625
72806:0.123254
72808:0.0350271
72824:-0.0713981
72933:0.207203
73001:0.116183
73024:0.160915
73106:0.0076331
73199:-0.0352634
73209:-0.29374
73327:0.11602
73346:-0.000953965
73390:-0.318113
73602:0.16545
73650:-0.237739
73680:-0.117421
73746:0.118222
73808:0.234582
73975:0.205793
73990:0.029809
74119:0.11655
74211:-0.100799
74215:0.0957713
74232:0.00512926
74409:0.0113475
74437:-0.345574
74493:0.119826
74514:0.121375
74525:-0.182527
74574:0.119138
74625:0.105545
74636:-0.147468
74672:-0.245522
74828:-0.199636
74835:0.273258
74888:0.166919
74940:0.531972
75029:-0.32277
75196:0.114445
75354:0.0563464
75391:0.173735
75402:0.231878
75405:-0.21737
75422:0.0479099
75533:0.304102
75554:0.11655
75815:0.172442
76080:0.326646
76263:-0.0371942
76346:-0.0920185
76370:0.140793
76407:-0.0152918
76440:0.087491
76545:0.0520205
76722:0.241973
76723:0.118696
76774:0.0525204
76803:0.11715
76852:-0.0978248
76891:-0.261104
76940:0.293059
77012:0.277533
77021:-0.360497
77056:0.0445395
77113:-0.130834
77168:0.214776
77215:-0.117695
77551:0.116429
77641:0.0157863
77704:-0.0912294
77811:0.00291962
77880:0.129601
77910:0.156422
77933:0.124805
77980:0.208666
78017:0.0492482
78058:-0.261651
78089:0.213266
78204:0.264594
78206:-0.132192
78253:0.230851
78518:-0.0185353
78531:0.119557
78752:0.218188
78771:0.233392
78840:0.168648
78883:-0.125748
78902:0.0888089
79058:0.178897
79106:0.226211
79142:-0.117558
79182:0.190599
79287:0.117337
79458:-0.195678
79537:-0.103461
79648:0.129114
79705:-0.203581
79728:0.154356
79870:-0.0119055
79899:0.582297
79966:-0.012641
80005:-0.118327
80059:-0.379212
80167:0.262061
80303:-0.379546
80310:0.119794
80316:0.150441
80348:0.273126
80361:0.228625
80375:0.159265
80610:-0.370914
80635:-0.0243012
80673:0.165873
80690:0.116933
80980:-0.00741991
80987:-0.000336826
81030:0.0370156
81043:0.135053
81474:-0.00267866
81750:0.150109
81913:-0.0852991
81993:-0.166675
82245:0.15915
82303:0.227216
82315:-0.120459
82356:-0.0806087
82467:-0.0656681
82491:0.137798
82548:-0.0159212
82576:0.296392
82646:0.119915
82716:0.14261
82748:0.214939
82832:-0.188
83005:0.0297907
83033:0.0699299
83081:0.0271984
83092:0.236247
83322:0.116492
83330:-0.199831
83368:0.227277
83532:0.163588
83783:-0.116489
83926:-0.117012
84095:0.183533
84139:0.404764
84194:0.195212
84269:0.194611
84273:0.118223
84331:0.0562472
84344:0.142178
84353:-0.0937685
84504:0.0394969
84626:-0.103434
84727:-0.00221817
84772:-0.20526
84846:-0.117022
84907:-0.11684
85062:0.775582
85074:0.0978559
85081:0.00386258
85114:0.117228
85133:-0.145794
85150:-0.192809
85186:0.221959
85275:0.000215784
85306:-0.11727
85539:-0.112541
85604:0.0858954
85629:0.247742
85692:0.116521
85747:-0.105022
85943:0.225802
85972:0.179027
85986:0.116951
86258:0.138576
86270:0.212607
86274:0.0732878
86304:-0.0269312
86411:-0.124208
86493:-0.250066
86507:0.0576343
86555:0.0132994
86572:0.406131
86626:0.115963
86634:0.0332993
86663:0.0530384
86923:0.121188
87103:0.150734
87227:0.175883
87250:-0.270795
87295:-0.127085
87327:-0.206522
87729:-0.056498
87795:0.0283789
87912:0.0151244
87919:-0.339425
88029:-0.108962
88044:-0.0622459
88116:-0.276452
88198:-0.312388
88240:-0.072855
88316:-0.118214
88663:-0.0584233
88676:-0.194352
88697:-0.388622
88775:-0.21682
88837:0.418944
88847:-0.273157
88858:-0.255484
88945:0.0636359
89010:-0.00105685
89243:-0.0369978
89297:0.193957
89515:-0.115953
89520:0.354139
89618:0.23207
89620:0.116578
89644:-0.0112799
90140:0.331635
90159:0.061557
90187:-0.165744
90245:0.000210844
90276:-0.308738
90291:0.113735
90370:0.0783665
90554:0.281978
90611:-0.116337
90711:-0.117163
90732:-0.116731
90878:-0.159514
90908:0.108918
90953:0.160209
91080:0.158888
91432:0.0764858
91461:-0.27223
91495:0.161785
91504:-0.0878631
91573:0.0499449
91721:-0.252411
91810:0.153642
91860:-0.00253496
91872:0.117547
91939:0.228677
91977:0.11736
91986:0.0186425
92000:0.142003
92091:0.202202
92095:-0.181538
92148:-0.149981
92236:-0.126679
92261:0.00326399
92300:-0.50253
92343:-0.147291
92344:0.231603
92411:0.100747
92415:0.0471361
92466:0.0794616
92574:0.102624
92661:-0.217352
92680:0.0387866
92816:-0.213349
93057:0.212048
93070:0.234771
93077:0.289242
93121:0.025673
93166:-0.254403
93214:0.156618
93287:-0.063403
93313:0.270637
93480:0.263961
93503:0.158717
93505:-0.196867
93535:0.116307
93577:-0.230342
93697:-0.110797
93738:-0.116568
93774:-0.115942
93787:0.23297
93865:0.214031
93878:0.0484858
93982:0.0105448
94003:-0.00281888
94246:-0.00103681
94361:0.118091
94370:0.117021
94394:-0.0228741
94453:-0.00204805
94480:-0.0389915
94534:0.193658
94698:-0.409486
94700:-0.24236
94842:0.160787
95104:-0.371128
95108:-0.126606
95116:0.116743
95128:-0.116702
95279:-0.0198719
95437:-0.0944647
95574:-0.0160891
95575:-0.0144577
95629:-0.119868
95688:0.152292
95725:-0.178119
95744:-0.281932
95824:0.0829041
95994:-0.114779
95998:0.234027
96032:-0.0107889
96105:-0.236362
96134:0.143076
96269:-0.187246
96271:-0.0795459
96275:0.345271
96283:-0.210138
96562:0.160523
96753:-0.191279
96830:0.207734
96867:0.0310301
96892:-0.0360972
96946:-0.0381086
97146:-0.214345
97222:0.237782
97429:0.237846
97432:0.0811231
97517:-0.0192125
97553:0.102124
97599:0.120845
97647:0.117288
97703:0.116198
97800:0.223962
97854:-0.182746
97900:0.116868
97988:0.121718
97994:0.296094
98067:0.470451
98070:0.319852
98117:-0.00234906
98123:-0.0902466
98162:-0.28634
98231:0.0967156
98319:-0.0750919
98329:-0.115919
98519:0.030768
98536:0.119198
98545:0.00790629
98709:0.117242
99013:-0.213284
99028:0.177337
99148:0.508296
99258:0.0266718
99410:-0.117738
99458:0.151373
99475:0.115945
99480:-0.300703
99710:-0.306814
99737:-0.0865197
99813:-0.483443
99889:0.124291
99923:0.116515
99939:0.11696
99981:-0.346378
100064:-0.0837165
100076:-0.000787765
100163:0.0928847
100241:-0.119943
100261:-0.484687
100270:0.11651
100706:0.0843082
100735:0.149789
100743:0.120775
100784:0.119002
100824:0.204314
100911:-0.094924
100931:0.0100749
100966:-0.0415489
101054:0.0530282
101137:0.116471
101145:0.0756648
101161:0.00366561
101237:-0.21439
101347:-0.178225
101508:-0.118698
101547:-0.245387
101850:-0.164394
101865:0.156568
101929:-0.0454599
101946:-0.162956
101964:-0.119342
102045:-0.0127105
102098:0.0443888
102118:-0.240037
102211:0.231894
102365:0.120595
102400:-0.112616
102438:-0.11813
102459:-0.116955
102597:0.37059
102707:0.167429
102714:0.032485
102725:0.116266
102745:0.008929
102899:0.122122
102954:0.116998
102973:-0.0649126
103053:0.198711
103082:-0.0646826
103085:-0.0141944
103217:0.194695
103229:0.00244286
103543:0.388564
103548:-0.0696954
103872:-0.0272792
103913:0.116531
103924:-0.174131
104007:0.132331
104045:0.136514
104351:0.0801474
104529:0.0662634
104598:0.0696685
104661:0.0348861
104670:-0.326064
104676:0.118251
104701:0.116401
104722:0.0736071
104942:0.000706233
105000:0.0750873
105024:0.266388
105112:0.117234
105194:-0.11561
105246:0.117045
105283:0.128172
105344:0.164597
105493:0.0808397
105530:-0.153954
105546:0.346324
105559:0.0678311
105561:-0.11636
105672:-0.0688651
105741:0.00186339
105752:-0.464242
105787:0.0717471
105809:-0.117952
105891:-0.089468
105925:-0.0291284
105949:0.038336
105970:-0.0411524
106044:-0.0764937
106069:0.134688
106186:0.118793
106199:-0.219496
106387:-0.251162
106459:0.0641916
106497:0.282138
106624:0.0607562
106694:-0.369348
106729:0.0854707
106803:0.331959
106845:-0.11669
106964:-0.210849
106974:-0.0330673
107003:0.0409077
107133:0.192488
107421:0.125138
107459:-0.166532
107631:0.035737
107805:0.232605
107886:-0.031789
108053:-0.472155
108486:0.0152965
108588:0.22594
108734:0.0533727
108964:0.120156
109029:0.116597
109032:-0.268573
109107:-0.0476379
109130:0.202788
109275:-0.132213
109298:-0.0324062
109339:0.20542
109343:0.125449
109344:-0.0376654
109420:-0.0594054
109528:0.205485
109552:-0.111034
109570:0.11668
109658:0.116214
109799:-0.117997
109972:0.118255
109976:0.00012984
110010:0.116507
110085:0.117206
110095:0.0758533
110152:0.102837
110188:-0.254803
110210:-0.310492
110589:-0.617094
110676:0.0276283
110689:0.0122078
110763:-0.0995566
110823:-0.000659838
110876:0.0174478
110903:0.0106243
111034:0.358049
111040:0.0546557
111047:0.182717
111116:-0.00685458
111222:-0.028247
111245:-0.0518761
111324:-0.28572
111329:0.118792
111648:-0.00869063
111788:-0.115787
112056:-0.0726673
112065:0.0171687
112143:-0.449072
112363:-0.165491
112365:0.133663
112583:-0.0452584
112588:-0.298725
112614:-0.248794
112637:-0.251628
112664:0.116809
112832:0.0315387
112875:-0.347632
112929:-0.0359524
113072:0.194634
113077:0.00906777
113170:0.250871
113404:0.217684
113409:0.164749
113463:0.0579283
113560:-0.627371
113563:0.238017
113595:-0.166604
113668:-0.117437
113724:0.157339
113732:0.272188
113755:-0.0422269
113961:-0.194086
113996:0.24576
114033:-0.119389
114035:-0.328844
114179:-0.0530527
114180:0.0743069
114283:0.189363
114422:-0.117954
114470:0.115738
114572:-0.181583
114579:0.119235
114682:-0.354261
114899:0.375317
114939:-0.0514076
115041:-0.341106
115049:0.054393
115063:-0.132826
115081:0.400486
115114:0.214689
115216:0.251299
115329:0.118096
115331:0.120407
115378:0.12615
115472:0.0426463
115488:0.0898718
115665:0.120234
115682:-0.340039
115812:0.2101
116060:-0.170188
116188:0.279812
116256:0.150462
116318:0.232801
116412:0.108116
116459:-0.21543
116478:-0.188416
116481:-0.390743
116543:-0.159259
116632:0.143363
116837:0.235731
116961:-0.179704
117004:0.0336769
117045:0.169418
117147:-0.336532
117177:-0.0828649
117224:0.0287771
117244:0.104407
117355:-0.117838
117362:-0.122016
117891:0.116549
117927:0.0873935
117962:0.1161
118058:0.120687
118146:-0.641524
118187:0.107977
118239:0.0114937
118313:0.223902
118326:0.117144
118393:0.335918
118407:0.116682
118443:0.53334
118699:-0.00516886
118732:-0.0836459
119075:0.134421
119100:0.221926
119113:0.48899
119140:0.150581
119261:0.214471
119368:-0.0103449
119400:-0.134592
119450:0.171688
119475:-0.104167
119499:-0.317799
119566:-0.0233912
119623:-0.00397164
119683:-0.254997
119774:-0.262191
119795:-0.11727
119818:-0.0720668
119982:-0.0058491
120068:-0.114702
120256:-0.267236
120277:-0.179011
120323:0.20551
120367:0.123576
120519:0.218112
120728:-0.114285
120805:-0.322418
120825:-0.118632
120889:0.24472
120974:-0.211573
121110:0.448806
121132:-0.0485379
121210:-0.0386711
121388:0.120529
121389:0.178478
121451:-0.0782599
121514:-0.253954
121578:-0.10029
121598:0.105833
121696:0.116335
121746:0.19778
121779:-0.00378252
121784:0.267149
121840:0.106723
121913:-0.00528874
121935:-0.392483
121940:0.122338
121948:-0.198869
122191:-0.300178
122192:0.239387
122202:0.118585
122247:-0.117593
122297:0.17323
122363:0.284499
122403:0.112674
122454:-0.138629
122590:-0.217467
122598:0.301947
122747:-0.254162
122782:0.143747
122878:0.362106
122886:0.219673
122908:0.119168
123007:-0.0933871
123224:0.177889
123257:-0.376455
123276:-0.113206
123305:-0.208919
123411:0.0322141
123480:0.103559
123519:-0.251554
123521:-0.116796
123647:0.208482
123706:-0.0750273
123731:-0.0627155
123785:0.163785
123798:-0.00159715
123847:0.101541
123872:-0.0700937
123988:-0.112226
124000:-0.104639
124009:-0.14689
124228:-0.0501807
124251:-0.0148591
124261:0.119914
124408:-0.2244
124444:0.118644
124788:0.116462
124847:0.116827
124848:-0.067715
124854:-0.075538
124858:0.152318
125025:-0.227417
125044:0.232756
125071:-0.206627
125115:-0.11684
125120:-0.28785
125180:0.116754
125660:0.396957
125670:-0.117064
125750:0.116702
125752:-0.221372
125827:-0.279565
125923:0.116654
126061:0.00147046
126083:-0.205537
126092:-0.32823
126185:-0.25358
126247:0.117129
126300:-0.0682661
126321:0.065146
126545:-0.0903039
126727:0.115698
126852:0.0136311
126890:-0.162963
126979:0.289721
127067:0.0712928
127158:-0.493151
127170:0.121214
127281:-0.222408
127347:-0.0356689
127375:0.049927
127581:-0.241607
127582:-0.0470151
127801:-0.376378
127845:0.116291
127918:0.116426
127957:0.234482
127969:0.116798
128051:0.11914
128071:0.269935
128095:-0.141437
128198:0.0660424
128248:0.117056
128271:0.218855
128402:-0.125533
128444:0.234186
128456:-0.187769
128490:0.147763
128536:-0.0796164
128619:0.164492
128689:-0.345841
128733:-0.0517408
128998:-0.23953
129305:-0.165742
129352:0.263849
129424:-0.0695594
129431:-0.171395
129453:-0.000962019
129578:-0.0664962
129930:0.13307
130071:0.119463
130176:0.117363
130193:0.117252
130279:-0.0907206
130291:0.159067
130441:0.106217
130677:0.284539
130697:0.0381476
131018:0.117141
131076:-0.114755
131299:0.242919
131307:0.118764
131342:0.118539
131458:0.0838881
131463:0.0303469
131612:0.332744
131667:-0.15227
131697:0.0614111
131901:0.0466527
131957:-0.116409
132036:0.203866
132042:-0.125491
132113:0.0477859
132188:-0.00327419
132214:-0.303835
132283:0.117987
132288:0.00279447
132294:0.116569
132299:0.117995
132352:-0.0629091
132388:-0.167984
132509:0.116503
132550:-0.149279
132559:0.040013
132611:0.345299
132683:-0.148675
132793:0.115653
132990:-0.118377
132999:0.116329
133202:0.210475
133360:-0.0580675
133362:0.160735
133391:0.117678
133550:0.117256
133577:0.11679
133663:-0.180168
133742:-0.288181
133754:0.194281
133803:0.0637386
133865:-0.153437
133973:0.192256
133985:0.147465
134043:-0.223299
134055:-0.112685
134099:0.117229
134118:0.117086
134160:-0.0366843
134183:0.117106
134204:-0.117268
134254:0.140071
134310:0.0338804
134418:-0.210116
134423:0.124564
134444:0.11679
134464:0.139335
134513:0.116567
134606:-0.0106742
134652:-0.0798556
134837:0.109163
134846:0.211985
134855:0.556783
134915:0.388349
134916:0.187356
134930:0.249874
134934:0.226497
135144:0.0826588
135216:-0.046083
135327:-0.357131
135389:-0.364774
135555:-0.117084
135560:-0.0700835
135561:0.215983
135662:-0.0961485
135670:0.100492
135729:-0.22509
135778:0.12928
135856:-0.259492
135884:-0.251648
135982:0.0905138
136043:-0.219986
136045:0.152882
136227:-0.0761121
136297:-0.168828
136361:0.116504
136372:-0.119852
136377:-0.100462
136380:0.0117522
136492:-0.370363
136670:-0.302223
136786:0.0988128
137063:-0.17643
137125:-0.260017
137227:-0.177714
137340:0.117339
137365:0.12029
137422:0.136845
137489:-0.22305
137494:-0.214975
137496:0.199872
137505:0.178799
137614:0.222567
137694:0.159933
137778:0.219764
137832:-0.197583
137848:0.0107976
137882:0.215569
137902:-0.532599
137910:-0.281385
137932:-0.046023
138222:-0.233066
138345:-0.0829872
138427:0.159586
138428:0.266764
138472:0.441343
138516:0.294012
138551:-0.115936
138700:-0.0768233
138874:0.269575
138911:0.123176
139035:-0.0959121
139078:-0.419805
139116:0.132934
139156:0.117685
139179:-0.0301643
139210:-0.187113
139303:0.099075
139332:-0.00460846
139391:0.0833259
139577:0.355604
139581:-0.045048
139696:0.253804
139878:-0.064376
139892:-0.115935
139979:-0.432331
139999:0.170363
140420:0.117508
140434:-0.218487
140464:-0.117042
140507:0.289564
140581:0.152508
140688:0.230416
140705:0.116296
140763:0.193108
141026:-0.206084
141033:0.0498383
141042:-0.61791
141051:0.0656978
141080:0.226247
141131:-0.194246
141164:0.353421
141178:0.305505
141204:-0.0834004
141244:-0.463695
141439:-0.39957
141486:0.117082
141526:-0.00921047
141547:0.116748
141645:0.306332
141739:-0.124978
141773:-0.062559
142044:0.140291
142079:-0.115874
142094:-0.0638912
142096:-0.434143
142127:0.18615
142147:-0.118366
142159:0.114263
142184:-0.229591
142219:-0.262735
142357:0.211959
142408:0.426636
142511:0.118207
142544:0.22522
142665:0.290429
142901:0.118913
142918:-0.383497
142986:0.460329
142996:0.14919
143099:-0.208551
143150:0.16403
143186:0.246114
143491:0.342135
143509:0.30973
143524:-0.0333071
143604:-0.264245
143792:0.00358195
143828:-0.05602
144101:-0.144744
144345:0.116845
144375:0.0276426
144400:0.319079
144415:0.159047
144554:-0.119368
144612:-0.187321
144744:-0.078592
144747:-0.117088
144773:0.129717
144897:0.0871613
144952:-0.200551
144955:-0.378411
144984:-0.0107791
145114:0.00395015
145189:0.12086
145363:0.265625
145404:0.116572
145463:0.00517654
145518:0.0255693
145606:0.112638
145804:0.13397
145915:0.0195089
145963:0.0195277
146010:0.0578994
146056:-0.0760851
146152:-0.0192125
146376:-0.121116
146402:0.0547531
146428:-0.339326
146452:-0.033243
146616:-0.118569
146630:0.0477454
146774:-0.0285052
147072:0.117641
147140:-0.116659
147184:0.103983
147253:-0.0340384
147359:-0.18327
147423:0.117198
147450:-0.337351
147509:0.11875
147562:0.00341421
147585:0.314567
147681:-0.26124
147746:-0.0910684
147792:0.225771
147832:-0.240936
147930:-0.0540371
148054:0.120968
148139:-0.118496
148211:0.187102
148225:0.758915
148242:-0.0109249
148243:-0.102811
148268:0.122025
148274:0.0186725
148336:-0.120431
148356:0.134991
148418:0.233208
148457:-0.117024
148516:-0.0306407
148598:-0.165283
148696:0.313552
148701:-0.0578619
148734:0.0914745
148772:0.117104
149003:0.227074
149063:0.119596
149074:0.098741
149161:-0.178921
149219:-0.143131
149280:-0.0342207
149329:0.168945
149506:0.116661
149550:0.232362
149608:-0.00561072
149613:-0.258062
149639:-0.189729
149680:-0.299268
149689:-0.117316
149698:-0.266218
149734:0.192759
149810:0.0509732
149813:-0.112564
149872:0.119756
149892:-0.0238735
149935:0.0999597
149961:-0.117399
149984:0.0108181
150040:0.227966
150078:-0.120354
150133:0.232564
150218:0.173389
150246:-0.21075
150304:-0.11701
150353:-0.206813
150388:-0.120887
150443:-0.111219
150670:0.124684
150680:-0.383675
150705:-0.262398
150844:-0.441332
150885:0.167317
150928:-0.12013
151008:-0.0457492
151054:-0.250379
151164:0.0150239
151307:0.116087
151361:-0.00757075
151477:-0.160438
151693:-0.218319
151703:-0.231129
151769:0.56413
151798:-0.0114311
151821:0.00361194
151887:-0.0405771
151906:-0.117662
152001:-0.0720962
152049:0.253648
152078:-0.0228868
152134:0.115715
152344:-0.0481985
152466:0.268786
152554:0.11652
152582:-0.100173
152669:0.116311
152901:0.117088
152948:-0.131769
152978:-0.433182
153034:0.116537
153085:0.365707
153131:0.124241
153259:-0.0585346
153272:-0.118825
153305:-0.384178
153316:-0.0188907
153326:0.323937
153347:0.144778
153376:-0.139785
153391:0.129271
153421:0.255106
153478:0.170587
153518:0.116478
153632:-0.121393
153758:-0.0387055
153895:0.11892
153970:0.169591
154180:-0.125178
154215:-0.119448
154462:0.117033
154588:5.55006e-05
154758:0.0795534
154821:0.111047
154937:-0.154529
154992:0.0356103
155008:0.198353
155051:-0.0178733
155089:0.116226
155124:-0.133944
155305:-0.468096
155308:-0.103768
155338:0.119244
155402:-0.0502062
155442:-0.188318
155455:0.0571373
155578:-0.130893
155593:0.0270163
155652:-0.0237766
155681:-0.190968
155735:0.0467136
155791:-0.253219
155880:-0.0155095
156041:-0.116613
156089:-0.318625
156155:-0.0168366
156240:-0.212359
156315:0.11864
156325:-0.00324727
156513:-0.0253507
156640:0.0385608
156679:-0.157828
156828:-0.194363
156845:0.403397
156949:0.193293
156954:0.119413
157084:-0.131809
157239:0.0857759
157250:-0.0752954
157292:-0.000411504
157405:0.052789
157537:-0.26933
157586:0.120185
157680:-0.0980052
157771:-0.274572
157782:0.23089
157988:0.0346582
158154:0.116926
158161:0.000101954
158179:-0.241997
158215:-0.134617
158250:-0.0163595
158429:-0.0898204
158448:0.0161449
158909:0.365233
158969:0.158013
158990:0.113067
159004:0.130042
159188:-0.188219
159230:-0.198427
159248:-0.00221671
159303:-0.30748
159434:-0.538572
159443:0.159272
159479:0.271931
159525:0.200164
159542:0.0201179
159750:0.0292394
159767:0.168095
159921:-0.0739399
159992:0.117212
160064:0.117079
160085:-0.198814
160098:-0.0468087
160126:-0.189873
160232:-0.14177
160359:-0.441525
160410:0.117169
160425:0.116543
160581:0.125245
160618:0.225097
160702:-0.114217
160752:-0.0872975
160813:0.116467
160820:-0.0965827
160918:0.168918
161073:-0.162435
161213:-0.157308
161247:0.0642834
161328:-0.312225
161411:0.114143
161413:0.138418
161512:-0.0835288
161556:0.222846
161560:0.0827636
161582:-0.130422
161636:-0.459876
161792:0.0421172
161825:-0.325659
161941:-0.114932
162115:-0.0984233
162140:0.404983
162398:0.035619
162419:0.282942
162509:0.0443769
162587:0.236368
162595:-0.0933932
162682:0.199177
162822:-0.246173
162827:0.116179
162920:-0.33721
163000:-0.21847
163031:-0.169927
163092:-0.0468818
163182:0.207126
163265:-0.0659663
163278:-0.0372341
163281:-0.117536
163290:0.116564
163319:-0.117712
163361:0.174155
163436:0.0107498
163495:0.116072
163498:0.00134767
163526:0.11678
163545:0.173598
163547:0.0702973
163691:0.118831
163776:-0.031984
163823:-0.132355
163897:0.181792
163908:0.0699825
164017:0.117584
164019:-0.21523
164125:0.04896
164152:0.0611216
164236:-0.120563
164244:0.0832697
164247:-0.14175
164248:-0.142309
164265:0.116589
164519:-0.205311
164521:0.115536
164645:-0.168315
164740:0.206802
164776:-0.422337
164802:-0.692338
164906:0.206485
164946:0.453347
165017:0.0747901
165066:-0.111688
165074:-0.261087
165114:-0.197843
165380:-0.014097
165430:-0.0913735
165539:-0.132016
165542:0.130603
165551:-0.0427947
165564:0.204789
165597:-0.408883
165622:-0.130624
165703:-0.155968
165721:-0.194441
165792:-0.371592
165795:0.0477859
166087:0.303799
166197:-0.0360949
166280:-0.295889
166340:0.0535359
166446:-0.0833937
166497:-0.133245
166610:-0.118378
166771:-0.104746
166873:-0.28305
166907:-0.323707
166927:0.224099
166936:-0.0387452
166988:0.335603
167057:-0.109277
167184:0.230771
167291:-0.147326
167322:0.206586
167412:0.170957
167501:0.0816719
167620:0.23291
167627:-0.0647999
167662:-0.413825
167754:0.23294
167913:-0.120881
167965:-0.117048
168090:-0.108618
168124:0.417312
168147:-0.24912
168188:0.0384352
168190:0.291614
168342:0.355659
168384:0.193555
168650:0.0569418
168746:3.3593e-05
168751:0.189721
168896:0.00422323
168977:-0.175593
169057:-0.143268
169081:-0.115433
169115:0.181763
169276:-0.054496
169306:0.116538
169378:0.13447
169443:0.210797
169630:0.210896
169690:-0.0913878
169792:0.196764
169803:-0.120417
169994:0.366009
170025:0.154186
170044:-0.197228
170209:0.222593
170258:-0.00979638
170451:0.135178
170504:-0.00273296
170527:0.0690458
170698:0.0772978
170722:-0.104532
170755:0.119028
170764:0.23522
170817:-0.115768
170867:-0.113977
171154:-0.182035
171190:0.17018
171360:0.251367
171477:-0.00387599
171572:0.0529258
171635:0.173972
171785:-0.120363
171871:0.116265
171900:0.222969
171918:-0.363329
172069:-0.00720337
172097:-0.175039
172312:0.0352426
172321:0.116442
172329:-0.0191472
172341:0.116718
172354:0.224159
172357:-0.105023
172533:-0.246974
172556:0.119191
172559:-0.306963
172586:-0.0176227
172617:0.334387
172709:-0.469675
172783:-0.0921197
172804:-0.468832
172902:-0.271812
172903:-0.0749923
172907:0.150761
172943:0.417895
172966:-0.114699
172993:0.11646
173006:-0.117543
173029:0.1408
173030:-0.149196
173080:0.0177555
173096:-0.117415
173173:0.116683
173341:0.173487
173347:0.235854
173397:0.0816881
173475:-0.0649543
173702:-0.221689
173771:-0.0633816
173779:-0.0547664
173782:0.199187
173932:0.0219628
173938:-0.0165819
174003:0.18102
174063:-0.0361747
174106:0.25257
174167:0.118055
174202:-0.0147592
174245:-0.108094
174290:0.0665803
174363:-0.117775
174396:-0.0600485
174431:0.114104
174495:0.120031
174504:-0.0367889
174517:0.281091
174690:0.154881
174710:-0.0463988
174752:0.0353876
174801:0.15546
174888:-0.0178277
174895:-0.337701
174954:0.0590891
175003:0.473249
175021:-0.181852
175263:0.150802
175310:-0.398321
175447:0.116535
175452:0.00647435
175518:-0.194188
175596:0.254176
175600:-0.115688
175787:0.000680812
175914:0.170547
175964:0.0369339
176085:-0.284404
176124:-0.179553
176213:0.115811
176229:-0.168989
176311:-0.107804
176373:-0.194652
176417:-0.327674
176609:0.116537
176615:-0.119439
176711:-0.121158
176792:0.119252
176837:0.219885
176856:0.317687
176887:0.117105
176926:0.212173
176934:-0.180371
176979:-0.299734
177079:-0.122601
177305:-0.117354
177382:-0.00559122
177448:-0.0848424
177523:0.079941
177564:0.0259967
177658:0.116667
177670:-0.11427
177780:-0.133362
177800:0.148244
177816:-0.134859
177822:0.0305967
177837:0.106953
177968:-0.117844
177980:0.120131
178001:-0.0196161
178016:-0.0283307
178080:-0.123294
178124:-0.111166
178126:0.104303
178181:-0.27328
178226:0.374073
178291:0.11659
178378:0.21234
178403:0.410209
178550:-0.204326
178597:0.012076
178694:0.21052
178743:0.349071
178744:0.250451
178771:0.0232588
178854:-0.135088
178906:-0.282661
178919:-0.0749403
179087:-0.325592
179479:0.189589
179485:0.129313
179548:0.247009
179566:0.116441
179569:0.134565
179570:0.00678001
179686:0.247761
179852:-0.249187
179877:-0.121052
180053:0.217471
180118:0.230565
180159:0.145445
180211:0.117258
180221:0.0652136
180293:0.117162
180306:-0.093232
180420:0.191621
180520:0.0116607
180525:0.0551492
180727:0.0747236
180794:0.248499
180871:0.262439
180875:-0.244176
181072:-0.0294913
181287:0.120619
181399:0.118171
181543:-0.116061
181544:0.116892
181551:0.240701
181641:0.0246522
181651:0.135425
181702:0.224395
181706:-0.118601
181788:0.331229
182090:0.128831
182181:-0.166025
182386:0.0720147
182436:-0.116716
182479:0.377981
182571:-0.112003
182592:-0.117324
182625:0.119161
182850:0.116519
182883:0.188552
183033:-0.118401
183158:0.0550011
183173:0.25793
183259:0.0292611
183439:-0.225517
183522:0.0968863
183570:0.05806
183672:-0.190511
183701:0.00161484
183726:-0.000566728
183880:-0.0848483
183981:-0.117021
184065:-0.302394
184103:-0.12166
184177:-0.0378225
184185:-0.0259466
184255:0.183537
184368:-0.118358
184394:-0.110533
184565:-0.0164752
184614:0.060855
184761:0.116572
184902:-0.293059
184905:0.290999
184969:-0.10116
185019:-0.198042
185108:0.103231
185126:-0.168908
185164:-0.136476
185205:0.131277
185274:0.116337
185452:0.151113
185457:-0.0492281
185558:0.11731
185608:0.371734
185621:-0.120342
185649:0.40861
185650:-0.121164
185652:-0.128894
185705:-0.385977
185718:0.0904565
185735:-0.100156
185749:-0.22626
185926:-0.299471
186343:6.60196e-05
186358:0.0578993
186369:-0.270993
186463:0.293737
186473:-0.282364
186606:-0.107796
186651:-0.303273
186678:0.116994
186823:0.306881
186891:0.0971316
186955:0.33436
186956:0.13582
187041:0.119935
187044:0.116689
187052:0.346963
187066:-0.11884
187182:0.176961
187227:0.138082
187428:-0.305354
187588:-0.0428961
187592:0.228358
187854:0.117534
187908:0.119082
188005:0.623397
188114:-0.0181695
188126:-0.117861
188168:0.152894
188179:-0.116688
188249:0.300563
188282:0.116889
188284:-0.0502396
188402:0.0482196
188455:0.310622
188512:-0.0807319
188570:0.116968
188769:-0.509414
188917:-0.153427
188998:5.68383e-05
189066:-0.229719
189232:-0.253978
189261:-0.0421832
189275:0.116263
189379:-0.084959
189481:0.232435
189503:-0.0272105
189551:0.135896
189571:0.116548
189661:-0.119126
189698:-0.0714474
189750:-0.199776
189770:-0.141707
189819:0.1344
190004:0.152593
190053:0.117697
190060:-0.0142983
190264:-0.0940382
190306:-0.155138
190315:0.074402
190368:-0.19984
190432:-0.117952
190445:-0.118589
190487:0.0353325
190561:0.157047
190565:-0.17133
190613:0.0587259
190615:0.11669
190661:-0.47939
190683:0.0359233
190721:0.195663
190796:-0.381808
190801:-0.141197
190876:0.316977
190900:0.128117
190939:0.118117
190952:-0.101065
190990:-0.119739
190997:0.0965845
191002:-0.16101
191014:0.198281
191026:0.118868
191116:-0.131612
191146:0.118134
191346:0.248879
191462:-0.203658
191599:0.0522096
191641:0.133391
191717:-0.00331442
191734:0.215948
191738:0.25111
191916:-0.0312376
191927:0.0543429
191932:-0.355413
191945:-0.119323
191956:-0.127358
191982:-0.195198
192084:0.0310216
192152:-0.301234
192154:0.117109
192186:-0.451733
192349:0.117596
192379:-0.117547
192413:-0.138497
192583:-0.117138
192600:0.0669503
192704:0.117998
192754:-0.0509729
192765:-0.118384
192875:0.308788
193020:0.120782
193021:-0.144379
193062:0.0204038
193073:0.317186
193124:-0.00247367
193149:0.113547
193236:0.11741
193277:0.353733
193451:0.198063
193478:-0.00076019
193682:-0.0845362
193744:0.0926092
193812:-0.258733
193855:-0.117567
193937:0.243789
193990:-0.152626
194101:0.0757081
194152:-0.143744
194363:-0.11633
194460:0.116852
194468:-0.101825
194584:-0.00129495
194625:0.0605771
194676:0.0499547
194778:0.0667815
194860:0.0461019
194992:-0.034344
195074:0.233718
195223:0.213481
195307:-0.0665001
195347:0.21895
195406:0.235128
195432:0.129658
195459:-0.0924125
195669:-0.0704819
195755:0.0349666
195770:0.0270188
195786:-0.116502
195852:-0.0986919
195955:0.0488749
195964:0.270447
196052:0.0965295
196117:0.259082
196291:0.112016
196352:-0.335426
196473:0.117008
196476:0.121418
196551:0.116904
196618:-0.346516
196856:-0.236445
196871:-0.116606
196903:0.259898
197037:-0.389223
197131:-0.120485
197161:-0.295337
197196:-0.225392
197371:-0.103473
197549:0.11629
197558:-0.0965279
197588:-0.259045
197597:-0.0534823
197713:-0.27459
197726:-0.19047
197758:-0.0399663
197792:0.000623176
197959:0.205749
197995:-0.206692
198014:0.33522
198129:0.198269
198253:0.116615
198261:-0.191458
198303:-0.0915606
198357:-0.0423058
198387:-0.119328
198475:-0.0750899
198546:0.0613095
198662:0.0108766
198744:-0.324727
198769:-0.116796
198785:0.116061
198830:0.142799
198890:-0.173216
198986:0.0500088
199055:-0.187725
199081:0.103231
199137:0.116454
199146:-0.178266
199163:-0.157366
199169:-0.223365
199202:0.102715
199270:0.173556
199573:-0.21901
199639:-0.185275
199737:-0.0976987
199879:-0.186725
199902:0.138199
200104:0.206258
200200:-0.163424
200813:-0.331785
200925:-0.33813
201004:-0.117336
201017:0.29861
201116:-0.237078
201121:0.116589
201155:-0.00731073
201171:-0.00355206
201314:0.0181295
201392:0.314946
201464:0.152873
201616:-0.000641756
201642:-0.0118018
201724:-0.107877
201789:-0.349914
201880:-0.119089
201910:0.0303124
201991:0.116412
201999:0.0608595
202028:0.351229
202163:1.33033
202233:-0.191609
202342:-0.247529
202344:-0.0607099
202500:-0.580154
202590:0.168058
202600:-0.274973
202612:-0.193552
202640:-0.17962
202687:0.0395792
202733:0.412171
202805:-0.0873127
202831:-0.00249761
202859:0.866069
202877:-0.424821
202950:0.271082
203161:0.12926
203227:-0.218133
203235:-0.0226035
203279:0.116921
203379:0.12463
203460:-0.052303
203480:0.114964
203483:-0.387405
203502:0.210589
203564:0.144122
203604:0.0110419
203614:0.177498
203656:0.140193
203840:0.164883
203920:0.00809247
203980:-0.137229
204049:0.0602364
204107:-0.302871
204110:-0.110257
204122:0.116548
204166:-0.0612289
204233:-0.272753
204285:0.154619
204365:0.159545
204397:-0.129172
204406:0.0545832
204471:0.18323
204472:-0.257484
204476:0.117346
204803:-0.153269
204807:-0.206182
204854:-0.20155
204892:-0.11672
204952:-0.111103
205072:-0.119282
205097:-0.19404
205277:0.0489001
205328:-0.119494
205341:-0.142622
205492:0.119566
205496:-0.22278
205600:0.34029
205625:-0.0358496
205778:0.117076
205855:0.0361942
205893:0.134834
206018:-0.288757
206281:0.116837
206578:-0.11751
206692:-0.0598391
206706:0.116481
206764:1.19712
206992:0.134561
207085:-0.114555
207106:-0.237468
207118:0.116521
207155:-0.143353
207289:0.0177396
207331:-0.109167
207453:0.115904
207483:-0.0202301
207519:-0.285729
207557:-0.0717331
207630:-0.333848
207744:0.16517
207764:0.102918
207987:0.232858
207998:-0.160998
208127:0.216321
208164:0.0097655
208538:-0.25584
208558:0.292225
208559:-0.015633
208565:0.326318
208608:0.192789
208766:0.115228
208820:0.115595
208842:-0.204984
208853:-0.221746
209081:-0.00116122
209117:0.226104
209226:0.216965
209273:-0.118117
209318:0.0684302
209372:-0.123353
209380:-0.214289
209393:0.233907
209490:-0.204559
209598:-0.26406
209752:0.117401
209870:-0.356405
209924:0.0147868
209968:-0.168948
209996:0.119991
210037:-0.239541
210056:0.0287397
210181:-0.131087
210286:-0.298728
210306:0.14514
210406:0.141492
210520:-0.108958
210688:-0.0413547
210922:-0.120483
211111:-0.102102
211148:-0.193868
211185:0.174853
211333:0.108047
211345:0.113905
211435:0.417312
211485:0.179434
211521:-0.0192402
211536:-0.251157
211630:0.103294
211898:-0.0839416
211961:0.150079
212091:0.179575
212094:0.0927283
212172:-0.208216
212275:0.224049
212478:0.169687
212748:-0.130132
212937:-0.201317
212967:0.164948
213085:-0.372221
213114:-0.42377
213123:-0.227702
213303:-0.0117032
213334:0.0311453
213500:-0.19336
213586:-0.0331401
213597:-0.131547
213710:-0.116929
213711:0.213102
213790:-0.167257
213894:-0.249513
213969:0.287032
214003:-0.341091
214082:-0.0638582
214103:0.110225
214256:-0.204005
214262:-0.233619
214274:-0.276592
214306:0.136603
214417:0.144011
214438:-0.0846152
214551:-0.0734372
214568:-0.319228
214618:0.214885
214663:0.313661
214737:-0.205608
214757:0.119431
214789:-0.117101
214820:0.0583473
214875:-0.13119
215051:0.211476
215124:0.103685
215146:-0.190673
215162:-0.117419
215304:-0.117325
215343:0.291069
215422:0.202433
215624:-0.164389
215656:0.0942883
215675:-0.289448
215699:0.150908
215708:-0.0471348
215908:-0.0821844
215944:-0.118308
215990:0.116465
216022:0.0883726
216072:-0.286797
216089:-0.101699
216190:0.118232
216191:0.21981
216266:0.227309
216272:-0.546333
216290:0.00464448
216341:0.183744
216725:-0.24509
216809:0.141862
216844:0.121852
216856:0.0112903
216887:-0.469088
216983:0.00131483
217030:0.152218
217101:-0.118276
217284:0.12001
217363:-0.185867
217423:-0.0394467
217450:-0.22772
217500:-0.380182
217520:0.116599
217539:0.116741
217651:-0.0578324
217780:-0.253367
217783:-0.266379
217858:-0.173181
217967:0.324984
217974:-0.0042863
218018:0.00880416
218092:-0.214277
218247:-0.117611
218250:0.116054
218263:-0.267696
218306:0.000368595
218393:-0.202977
218403:-0.0677364
218575:-0.341342
218582:-0.0543594
218632:0.299524
218738:0.188005
218835:-0.278971
218844:-0.189962
218883:-0.173726
218904:0.143872
218915:-0.0301338
218951:0.116016
218971:0.031239
219005:-0.226005
219049:0.0900486
219113:0.116608
219183:0.234059
219200:0.086533
219313:-0.450886
219320:-0.208591
219353:0.116374
219399:0.234528
219403:0.116814
219418:-0.0625224
219584:-0.472062
219629:-0.14827
219786:0.226124
219789:0.212098
219815:0.191393
219869:-0.139492
219932:0.232085
219968:-0.19625
220004:-0.163047
220011:0.187656
220127:0.116581
220238:0.00129969
220281:0.0963173
220282:0.227868
220475:0.0301103
220621:-0.477127
220673:-0.091784
220864:0.119133
220882:0.130981
220908:-0.452075
221063:0.265605
221102:-0.023806
221105:0.229525
221116:0.043583
221144:0.0972003
221165:0.117627
221183:-0.117403
221636:0.0276574
221721:-0.32322
221873:-0.00686374
221950:0.141672
221997:0.0598854
222017:0.269997
222308:0.0847136
222318:0.113906
222363:0.0495786
222436:-0.0753825
222675:0.0786436
222748:-0.295928
222825:0.344656
222830:0.240313
222836:-0.126727
222837:0.118798
222965:-0.118643
223081:0.0332961
223106:-0.00142869
223137:0.01519
223152:0.338217
223269:0.105065
223513:0.127982
223574:0.122498
223669:0.208076
223722:0.118181
223753:-0.305013
224058:0.00792217
224252:0.170461
224444:-0.329718
224457:-0.116815
224612:-0.196342
224636:-0.181658
224637:-0.151495
224656:0.214456
224785:-0.0051397
224891:-0.356709
224895:-0.167566
224933:0.116604
224993:0.297978
224999:-0.114281
225078:-0.106148
225086:-0.346203
225238:0.263735
225410:0.053836
225425:-0.392978
225511:-0.186194
225521:0.237933
225525:0.116555
225594:-0.090082
225704:0.169971
225786:0.0317014
225831:-0.115625
225855:0.103931
225942:-0.201432
226035:-1.0606
226063:-0.213323
226128:-0.379275
226182:0.160491
226190:-0.119024
226248:0.207052
226489:0.276444
226579:0.118789
226595:0.122532
226640:-0.067498
226652:0.0240261
226676:0.128773
226681:0.0512678
226764:-0.117932
226781:0.116706
226811:0.120155
226844:0.224815
226889:0.144694
227018:0.0418213
227116:-0.525821
227371:0.0160834
227406:0.126525
227545:0.63954
227781:-0.129963
227823:0.117127
227833:0.115828
227893:0.129039
227920:0.386424
227991:-0.0248487
227995:-0.345439
228121:0.315306
228293:-0.00108167
228457:0.0797418
228545:0.121376
228557:-0.167449
228608:6.33374e-05
228676:0.132815
228725:0.025697
228835:0.117324
228847:-0.168754
228978:-0.117734
228981:-0.116447
229022:-0.0782932
229060:0.0165992
229149:-0.0737922
229163:0.118298
229170:0.221447
229272:0.116376
229421:0.29451
229498:-0.00145922
229918:0.0474483
230100:-0.00716237
230269:0.208338
230470:-0.106555
230524:-0.117633
230639:-0.112283
230650:-0.195532
230697:-0.325722
230769:0.447209
230968:0.0733692
231026:0.00438895
231029:0.0134904
231080:-0.253608
231114:0.0103089
231126:-0.0501991
231201:0.0162258
231308:-0.118866
231325:-0.116921
231444:0.116631
231520:0.136001
231606:0.32896
231767:0.151542
231801:0.224727
231899:0.0234133
232030:0.118151
232063:-0.225759
232173:-0.412013
232187:0.29468
232281:0.0792526
232283:0.200351
232308:-0.544302
232397:-0.290721
232536:-0.185919
232546:0.116788
232778:-0.135921
232849:0.116517
233144:0.0632217
233153:-0.439546
233207:-0.24863
233248:0.142195
233450:0.0612149
233516:0.223044
233554:0.232113
233563:0.131109
233795:-0.12034
233940:-0.381247
234177:-0.116363
234236:0.196254
234282:0.0292731
234284:-0.155809
234355:0.16829
234481:0.207469
234526:-0.116722
234577:0.0528044
234738:-0.205831
235056:-0.177269
235155:-0.0568571
235340:0.358998
235349:0.00711716
235355:-0.228458
235443:-0.281676
235511:-0.130646
235519:0.117039
235522:0.0689258
235584:-0.205653
235670:0.119043
235756:0.118766
235821:0.203126
235892:0.0260106
235948:0.0217088
236025:-0.189469
236154:0.142422
236382:0.11306
236422:0.116793
236492:0.252767
236625:-0.11655
236744:-0.00798231
236920:-0.186605
237067:-0.0362121
237131:-0.237512
237383:0.0722908
237403:0.116804
237429:-0.117239
237556:0.204263
237599:-0.0674918
237756:-0.273417
237806:0.121865
237878:0.0838411
237883:-0.116649
237932:0.0409517
238058:0.27701
238227:-0.0426922
238297:0.231969
238424:-0.116059
238440:-0.119973
238504:0.0562468
238515:-0.20758
238532:0.27817
238533:0.275167
238726:-0.0686853
238841:-0.00622167
238863:-0.295586
238883:-0.098495
238931:0.0176307
238951:0.200614
238987:-0.059195
239016:0.00555653
239050:0.203797
239181:0.117204
239213:-0.0903382
239313:0.145282
239357:0.165794
239654:-0.0192125
239982:0.118628
240091:0.116573
240098:0.117126
240179:-0.0456873
240289:0.11735
240359:-0.0465414
240488:-0.173082
240523:0.161584
240568:-0.368575
240572:0.278797
240613:-0.269352
240767:-0.113153
240795:0.0321634
240850:0.194379
240866:0.186209
241030:0.120083
241076:-0.369847
241219:-0.118473
241280:0.117708
241332:-0.0566257
241379:0.228302
241428:0.325362
241539:0.19262
241600:0.0381517
241610:-0.00536684
241616:0.116512
241685:0.13836
241718:0.116529
241772:-0.051133
241840:-0.12047
241945:-0.117664
241960:-0.0240518
242083:0.00765491
242155:0.0627422
242280:-0.119976
242312:0.0544668
242401:-0.015389
242550:0.119197
242623:-0.192961
242646:-0.221966
242651:0.11631
242671:0.136796
242777:-0.254653
242931:0.145544
243115:0.0353195
243268:0.116919
243352:0.156783
243370:0.11584
243379:0.116868
243382:-0.117049
243484:0.019394
243580:-0.118125
243604:-0.117624
243817:-0.220907
243822:-0.257685
243945:0.143846
243950:0.0220568
244116:0.149199
244194:-0.102852
244216:-0.163981
244272:0.189246
244287:-0.062006
244320:0.22924
244390:-0.270975
244410:0.171015
244465:0.302104
244570:0.117165
244727:-0.0646145
245116:0.115083
245163:-0.199935
245200:0.116672
245235:-0.249785
245256:0.117032
245316:-0.614902
245391:-0.0850311
245405:0.116702
245635:0.246887
245905:0.119504
246004:-0.118231
246030:0.0403143
246142:-0.103443
246197:-0.0645394
246210:-0.116593
246211:0.0379699
246348:0.0179901
246427:0.23442
246598:-0.293184
246736:0.120402
246814:-0.0827585
246861:0.167729
246876:0.0622072
246884:0.196924
246896:-0.165475
246912:-0.116133
246973:-0.164292
247017:0.0127242
247124:-0.242138
247130:-0.177747
247158:-0.00941918
247202:0.0169011
247316:-0.0154469
247384:0.126225
247389:-0.0473353
247486:-0.255474
247638:-0.314736
248022:-0.0577273
248039:-0.232395
248043:0.17721
248092:0.0674501
248094:-0.0223991
248137:0.202494
248141:-0.297294
248158:0.214053
248176:0.237308
248289:0.118722
248500:-0.0360936
248532:0.0573341
248551:-0.194553
248668:0.236446
248862:0.199828
248985:-0.357992
248998:0.0644973
249006:0.23329
249110:0.187764
249136:0.295782
249160:0.119412
249268:0.0118634
249270:-0.166501
249271:0.00267026
249363:-0.00539947
249404:0.130481
249407:-0.296742
249456:0.0545461
249458:-0.107783
249535:1.33033
249555:-0.0413698
249636:0.249101
249644:0.189631
249726:0.0244341
249899:-0.132441
249901:-0.00124615
249908:-0.0376281
249936:0.0476773
250044:-0.1143
250438:0.205131
250466:-0.0139023
250524:0.233121
250530:0.11518
250535:-0.184098
250547:0.126515
250665:0.0103622
250677:-0.0146714
250762:-0.114572
250979:0.176939
250997:0.138291
251005:0.195607
251058:-0.118651
251227:-0.00266131
251238:-0.0777187
251436:-0.23335
251454:0.143395
251474:-0.18793
251554:0.0809064
251624:0.0132111
251682:0.187855
251696:-0.174145
251707:0.246288
251828:0.0773582
251921:-0.114911
252062:0.143504
252240:0.33935
252368:-0.337006
252407:-0.227516
252474:-0.00409042
252548:0.0517124
252609:0.051742
252614:0.22965
252618:0.459104
252656:0.149334
252692:0.118724
252704:0.0175137
252782:-0.119346
252807:-0.0531768
252811:0.100011
252861:0.116751
252885:-0.273735
252973:0.116666
252986:-0.0661969
253008:-0.0229024
253013:-0.117121
253044:0.0533234
253062:-0.126975
253128:-0.116657
253206:-0.115007
253278:0.0554946
253307:-0.260046
253331:-0.379522
253361:0.117439
253436:-0.11714
253560:-0.0268784
253589:-0.14227
253639:-0.0143355
253649:0.116416
253660:-0.340716
253704:-0.239613
253708:-0.0008497
253715:0.156757
253909:0.120554
254083:0.0593772
254143:0.0904979
254168:-0.120036
254181:-0.128408
254204:-0.102245
254376:-0.275954
254439:0.284861
254457:0.257485
254640:0.191755
254837:0.116518
254941:-0.225759
255023:-0.237286
255191:0.0477662
255215:0.10814
255550:0.0185099
255730:0.0553729
255838:-0.123816
255908:-0.291378
255983:0.118737
256501:0.252357
256564:0.280411
256583:0.115231
256608:-0.055485
256631:0.213567
256672:-0.308313
256787:-0.0916814
256864:0.145275
256932:0.139941
256966:0.0778811
256971:-0.103022
257004:0.116367
257038:0.115007
257047:0.116519
257157:-0.183475
257179:0.118485
257401:0.119651
257406:-0.2378
257493:0.128308
257495:-0.194198
257538:0.113313
257630:0.277417
257639:0.233532
257768:-0.000570782
257864:-0.0693228
257923:-0.157662
258083:-0.185772
258101:-0.0959138
258107:-0.0130615
258135:0.21041
258158:0.166757
258213:0.326032
258271:0.116471
258281:-0.0901838
258323:0.0881431
258325:-0.219641
258327:-0.2232
258333:-0.118142
258484:-0.15908
258511:-0.0519144
258546:0.0283463
258595:-0.12018
258797:0.0760179
258984:0.111088
259052:-0.117678
259058:0.118929
259296:0.234264
259410:-0.116974
259452:-0.0946462
259541:-0.273686
259558:0.231159
259585:0.226985
259616:0.128333
259626:0.116068
259819:0.38637
259899:-0.241935
260040:-0.0376827
260163:0.120065
260204:-0.117514
260225:0.120345
260236:0.157026
260244:0.116792
260298:-0.136399
260319:0.214991
260337:0.162925
260365:-0.149366
260405:0.117483
260451:-0.0829179
260533:-0.253188
260536:-0.0528736
260556:0.106647
260614:0.116932
260657:-0.0529028
260735:-0.486289
260781:0.212727
260901:0.0136958
260929:-0.317966
261031:-0.263285
261034:-0.118352
261047:-0.143839
261135:-0.00926942
261236:0.578119
261489:0.0592334
261507:0.120643
261595:0.253508
261686:0.188183
261701:-0.35009
261704:0.0995889
261786:0.00790622
261819:-0.121076
261880:0.061796
261937:0.0940243
262036:0.289701
