Version 8.6.1
Id 
Min label:-50
Max label:50
bits:18
lda:0
0 ngram:
0 skip:
options: --hash_seed 0 --binary --link identity
Checksum: 3221940710
:0
72:-0.0167725
107:0.226797
217:0.119522
220:0.176646
222:-0.232021
926:-0.0303961
968:0.137283
1015:0.119001
1171:-0.0478548
1250:-0.0127679
1321:-0.118791
1335:0.117809
1472:0.283172
1652:-0.0887007
1657:0.00139426
1692:0.18741
1891:0.0100276
1903:-0.20054
1975:0.369285
2115:-0.140631
2156:0.246991
2209:-0.202174
2236:0.115983
2436:-0.0447149
2552:-0.300318
2556:-0.170646
2564:0.181143
2698:0.129042
2799:0.161791
2923:-0.407362
2987:-0.0422431
3078:0.157984
3080:-0.123497
3162:0.127025
3176:-0.117343
3182:-0.0221503
3258:0.116867
3290:-0.0292737
3324:-0.0340286
3360:-0.116862
3365:0.0599506
3408:0.276443
3592:0.178085
3662:-0.457794
3801:-0.226511
4144:0.256809
4159:0.216944
4163:0.217106
4196:0.0190283
4215:0.0392761
4233:-0.051502
4343:-0.144975
4456:-0.36385
4473:0.175945
4478:0.219136
4675:0.105398
4706:0.00753975
4776:0.131703
4807:-0.0494837
4910:0.122374
4911:-0.117053
5116:0.116653
5246:-0.317578
5315:-0.116508
5317:-0.116077
5389:0.116218
5501:-0.198915
5508:-0.195709
5538:-0.580035
5953:0.0340508
5975:0.068022
5996:0.0728193
6041:0.113829
6061:0.138763
6482:0.225625
6692:0.234934
6883:0.00919163
6908:0.166787
6909:0.327687
7099:0.260321
7166:-0.258413
7238:-0.029471
7510:0.066376
7528:0.100388
7616:0.160767
7637:-0.0833029
7727:0.137804
7781:0.19537
7800:0.140593
7841:-0.279141
8110:0.137564
8157:-0.176122
8174:0.250429
8296:0.206766
8369:0.33565
8409:0.122083
8443:0.144246
8608:-0.238212
8771:0.116043
8813:0.19052
8880:-0.0713487
8926:0.0595433
8976:0.322558
9031:-0.170478
9075:0.0713301
9081:-0.11745
9101:-0.0409988
9249:0.0253972
9257:-0.0180267
9326:0.152559
9447:-0.147619
9524:0.115816
9575:0.238448
9579:0.23295
9594:0.123915
9657:0.289127
9772:-0.0808218
9829:-0.0159884
9841:0.225709
9869:0.126207
9890:-0.010116
9936:-0.00485816
10144:0.00289818
10273:0.121489
10370:0.0856773
10445:-0.319029
10628:-0.121345
10631:0.19408
10640:0.119424
10719:-0.100475
10769:0.445367
10810:-0.183381
10947:-0.32405
10961:-0.145051
11013:-0.150299
11049:0.0281494
11130:0.0362884
11140:0.364926
11169:-0.0754833
11194:0.298885
11349:-0.384725
11538:-0.11612
11711:-0.0586979
11714:-0.132508
11772:0.116191
11778:0.145436
11794:0.117639
11801:-0.118374
11811:0.116431
11839:0.181186
11841:-0.117057
12085:0.183141
12101:-0.256829
12205:-0.116615
12315:-0.333405
12392:0.0972968
12406:0.232811
12498:0.0614635
12729:0.181925
12800:0.223448
12881:0.208718
12942:0.21268
13148:0.153448
13178:-0.135332
13378:0.119838
13421:0.00379124
13433:0.369205
13440:0.116701
13466:0.115497
13480:-0.119151
13644:0.00458838
13723:0.116732
13781:0.117722
13793:0.189498
13837:0.116614
13880:0.0592598
13893:0.0314657
13902:0.0205965
13988:-0.0101911
14046:-0.120197
14146:0.11682
14217:0.0493401
14220:0.221239
14231:-0.289145
14311:0.115245
14319:0.237281
14430:-0.7214
14440:-0.117763
14499:0.11484
14567:0.000993033
14640:-0.196692
14648:0.17755
14650:-0.110331
14710:0.116148
14838:-0.302442
14946:-0.160974
15013:0.116032
15022:0.0715398
15150:-0.260938
15240:-0.116995
15255:0.0929767
15488:0.238297
15504:0.275197
15663:0.043829
15843:-0.116533
15890:-0.0337813
16034:0.124533
16080:0.23408
16159:-0.117841
16227:-0.255649
16298:-0.315746
16299:0.0700903
16374:0.118995
16436:0.372649
16460:0.0619494
16512:0.128095
16552:0.0364528
16568:-0.116699
16589:-0.117111
16766:0.16729
16857:0.0648077
17129:-0.162106
17158:-0.344771
17371:-0.17891
17388:0.0675995
17433:0.0912816
17481:0.104719
17578:-0.194253
17778:-0.116579
17863:-0.150024
18051:-0.254953
18087:0.229133
18133:-0.116775
18225:0.119933
18276:0.0634116
18307:0.160261
18351:0.291791
18389:0.259098
18464:-0.11915
18466:-0.117048
18483:0.1282
18548:0.0241752
18828:-0.120535
18878:0.217577
19110:0.00699799
19125:0.11653
19233:0.109263
19292:-0.19904
19306:0.406768
19362:-0.117047
19371:0.106429
19535:-0.222067
19718:-0.116764
19725:-0.336216
19726:-0.27512
19841:-0.328436
19930:-0.000102513
19985:0.12788
20076:-0.116067
20214:0.0349155
20217:0.101497
20239:0.152518
20344:-0.0105588
20374:-0.065138
20467:-0.0383937
20574:0.188251
20579:-0.000541553
20616:0.040649
20712:-0.0559131
20789:-0.0291087
20813:-0.274365
20948:0.148231
21080:-0.0978585
21137:-0.178209
21172:0.212119
21321:-0.117468
21324:-0.0393238
21373:0.120059
21398:0.117084
21426:0.29152
21447:-0.116701
21499:-0.132715
21537:0.0397504
21674:0.0974763
21879:0.250834
21918:-0.0552645
22267:0.116602
22297:-0.181682
22460:-0.112681
22588:-0.0175002
22728:0.256558
22789:-0.243061
23036:0.0682434
23069:-0.116863
23169:-0.11759
23198:-0.00830596
23239:-0.169481
23247:0.19845
23249:-0.0837179
23277:0.118449
23416:0.733304
23561:0.208235
23603:-0.302729
23610:0.116444
23650:-0.118748
23656:0.116754
23685:-0.0891805
23738:-0.564766
23783:0.276615
23826:0.117672
23877:0.1145
23944:0.220536
23985:0.116542
24006:0.118608
24165:-0.233388
24340:-0.110372
24431:-0.278448
24438:0.120283
24534:0.234864
24569:-0.173145
24696:-0.200034
24773:-0.117349
24781:0.118253
24931:0.0448535
24960:-0.0740113
25124:-0.247452
25191:-0.211739
25298:-0.0153302
25307:0.238403
25385:-0.22973
25411:0.226712
25435:-0.186508
25448:-0.101514
25782:0.0397859
25808:0.269655
26083:0.212297
26169:0.0723323
26234:0.116058
26317:0.227291
26392:-1.07922
26491:0.170408
26497:0.156539
26549:-0.155659
26657:0.0271029
26804:-0.102718
26893:0.208436
26912:-0.00889941
27073:-0.117295
27126:-0.0404037
27127:-0.0149048
27143:-0.0657606
27201:0.116818
27242:0.0649067
27266:-0.115893
27296:0.0686524
27326:-0.158626
27414:0.119352
27704:-0.136
27843:-0.191285
27862:0.0603746
28060:0.211618
28072:-0.303722
28153:-0.199033
28221:-0.16692
28232:-0.117538
28263:-0.126804
28273:0.345012
28507:0.245647
28659:0.105268
28706:0.226957
28720:0.235024
28733:-0.146951
28740:0.0846741
28811:0.355263
28934:-0.00138097
29016:0.224508
29055:0.182427
29072:-0.182615
29176:0.00389854
29227:0.201277
29259:0.00501483
29331:-0.264338
29340:0.117971
29377:0.043457
29498:-0.116027
29558:0.207662
30040:0.0128158
30056:0.184443
30121:-0.282709
30167:-0.279951
30222:1.36672
30230:0.444298
30409:-0.145205
30440:0.310819
30447:-0.117119
30500:0.227585
30511:0.0651337
30543:0.11924
30555:0.279657
30912:0.12358
30933:-0.0321052
30984:-0.207356
31090:0.121211
31296:0.356038
31331:0.112686
31383:-0.341011
31406:0.197878
31426:-0.242577
31473:-0.190899
31516:0.116699
31590:-0.0788069
31632:0.0866742
31768:-6.8407e-05
31902:-0.120826
31903:-0.0977074
31909:0.00493392
31930:-0.0695568
31937:0.141223
31960:-0.210867
31976:0.371283
32011:-0.174424
32012:0.119454
32039:0.169936
32120:0.0143993
32167:-0.123552
32173:-0.113818
32193:-0.117251
32204:-0.206692
32281:0.116268
32284:-0.0989477
32286:0.116536
32301:0.227522
32305:0.187828
32358:0.0420935
32363:-0.149845
32377:0.195426
32477:-0.0861341
32584:-0.118982
32643:-0.257571
32803:-0.0351688
32813:0.143047
32939:-0.00972608
33011:0.227382
33024:-0.119857
33042:0.154144
33063:-0.305344
33199:-0.0321052
33203:-0.0201998
33482:-0.121593
33598:0.232823
33672:-0.166655
33706:-0.00973963
33729:0.158694
33748:0.391065
33852:0.234679
33910:0.00403494
33924:0.116478
34148:0.159593
34299:0.235175
34363:-0.116881
34411:0.233089
34415:-0.118466
34538:-0.0257779
34670:-0.354061
34676:-0.0886419
34772:-0.0716942
34799:0.230971
34875:-4.30084e-06
34962:0.00482327
35146:-0.187697
35170:0.232299
35187:-0.0175233
35262:0.140376
35397:0.0628712
35412:0.136898
35448:0.11647
35608:-0.289472
35731:-0.275025
35762:0.117109
35811:0.378798
35921:0.000127088
36037:-0.0556521
36047:0.0397589
36161:0.117707
36258:-0.0726291
36293:0.298647
36408:0.0667957
36466:-0.210134
36481:0.117285
36563:-0.165901
36581:0.115991
36594:-0.00330364
36613:-0.158898
36634:-0.345006
36783:-0.00291044
36796:0.00363933
36830:-0.0843427
36876:0.0644549
36929:-0.278211
36999:0.119514
37152:-0.0961513
37190:0.178975
37282:0.232715
37390:0.231938
37550:-0.259154
37690:0.116519
37759:-0.123916
37852:0.106265
38038:-0.0469504
38124:-0.381478
38205:-0.189657
38238:0.116514
38324:-0.0134383
38332:-0.028911
38386:0.291225
38426:0.219098
38444:-0.0469364
38579:0.174965
38692:0.274051
38733:0.352951
38790:-0.335781
38819:-0.20001
38886:-0.0833282
39136:0.443944
39265:-0.58307
39348:0.254251
39392:-0.213515
39433:0.116002
39470:-0.236631
39497:0.11686
39550:-0.0231747
39586:0.117268
39641:0.101226
39674:-0.116855
39707:-0.105717
39793:-0.0395796
39817:-0.255817
39979:0.158572
39992:-0.156589
40017:0.208263
40021:0.202595
40069:-0.063812
40147:-0.114965
40313:-0.09558
40433:-0.215749
40522:0.222369
40742:0.108491
40856:-0.117152
40944:0.044952
41054:0.00363284
41168:-0.166292
41229:0.0983478
41249:-0.109648
41360:-0.116657
41376:0.25574
41491:0.312033
41536:0.0760311
41557:-0.276046
41597:0.00537534
41665:-0.216823
41696:-0.0275779
41761:0.190616
41764:-0.00647955
41808:-0.0793837
41908:0.241865
42002:0.0715508
42360:-0.0258937
42413:0.226953
42650:0.0750395
42663:-0.117093
42703:0.00988479
42805:0.0408931
42808:0.116447
42850:-0.289053
42912:-0.0486332
43107:-0.0134893
43211:-0.0768532
43227:0.163367
43389:0.00727573
43518:0.271315
43613:-0.0838927
43663:0.116324
43677:0.111764
43703:-0.115547
43756:0.116289
43793:-0.269395
43840:0.116597
43959:0.120308
44111:-0.189089
44167:-0.23444
44202:0.129083
44243:-0.0149028
44261:0.0310213
44312:-0.0886993
44324:0.352559
44450:0.147018
44559:-0.225633
44720:0.0575897
44723:0.282672
44935:-0.395448
45018:-0.13536
45026:-0.118896
45125:0.20152
45165:0.111225
45302:-0.0665763
45304:0.010568
45449:-0.164765
45467:0.0833269
45625:-0.217404
45632:0.000204988
45680:-0.152026
45726:0.265718
45783:0.0986095
45844:0.333575
45932:0.120393
45942:0.36876
45983:0.0448386
46003:0.0102776
46013:-0.0554762
46057:-0.245678
46109:0.242408
46210:-0.195831
46214:-0.0189386
46221:-0.0862937
46299:0.20317
46336:0.116512
46342:0.0714613
46413:0.136213
46419:0.117284
46505:0.0845763
46611:0.235469
46672:0.313722
46714:0.0139969
46730:0.115286
46869:0.117915
46881:0.0506164
46970:0.00801107
47087:-0.495446
47094:-0.059585
47136:0.23383
47148:-0.167275
47395:-0.260267
47450:-0.116571
47509:-0.148118
47597:0.165428
47681:0.231164
47714:-0.129981
47835:-0.116871
48018:-0.288571
48029:0.00455847
48120:-0.194015
48181:-0.272294
48304:-0.185919
48346:-0.0519979
48355:-0.148285
48476:-0.20734
48573:0.293543
48625:-0.119774
48679:0.266554
48725:0.166779
48860:0.161388
49130:-0.43732
49271:0.181457
49348:0.118153
49357:0.225116
49515:0.179654
49524:0.243923
49571:-0.150877
49662:0.235393
49774:-0.294133
49850:0.0301523
49892:0.124377
49959:0.117272
49969:0.116918
49994:0.11812
50063:-0.0992284
50161:0.225869
50194:-0.0743255
50196:-0.422686
50251:-0.253989
50378:0.0273492
50396:-0.0632553
50427:0.119387
50482:-0.239135
50508:-0.102792
50511:0.0671476
50539:0.116368
50548:0.0258316
50725:-0.0860483
50940:-0.117287
50967:-0.309283
50991:0.119035
51274:0.1174
51482:-0.116764
51553:-0.356961
51562:-0.270729
51582:0.116388
51589:-0.116727
51597:0.373083
51639:0.234282
51640:0.116375
51717:0.315925
51968:0.265751
51995:-0.116538
52004:0.105541
52174:0.208035
52186:0.0166222
52209:0.119448
52242:0.0843318
52326:-0.318705
52393:0.201446
52495:0.0378328
52687:0.0269324
52705:0.118632
52715:0.0254026
52753:0.116292
52930:0.105863
52962:-0.239451
53002:-0.0102023
53169:-0.0294314
53172:0.116705
53184:-0.11836
53214:-0.116127
53249:-0.00936094
53411:0.23531
53498:0.120918
53527:0.255101
53537:0.197855
53549:-0.399618
53775:0.116814
53797:-0.108139
53902:0.0334279
53995:0.213812
54004:0.122905
54053:-0.527574
54139:-0.126272
54144:-0.000923861
54189:-0.0565912
54193:-0.206055
54233:-0.340256
54278:-0.159081
54294:-0.313564
54316:-0.141872
54350:-0.120124
54396:-0.184436
54491:-0.117287
54548:-0.235507
54600:-0.400793
54703:0.0121862
54715:-0.117347
54836:-0.117207
54931:-0.189068
54957:0.12566
54998:0.058183
55132:-0.0371189
55194:0.227898
55214:-0.166599
55230:0.366053
55233:-0.248586
55466:0.103224
55490:0.0230558
55498:0.0140792
55533:0.129548
55584:-0.553951
55627:0.116386
55629:0.116595
55631:-0.0802018
55653:-0.0780513
55671:-0.107836
55750:-0.193945
55852:0.0314716
55944:-0.0898484
56032:0.0425892
56088:-0.0118017
56120:0.0461725
56158:-0.100615
56161:0.232807
56164:-0.00558357
56293:0.137012
56433:0.0585808
56436:0.168037
56485:0.118237
56555:-0.255685
56587:-0.434385
56693:-0.0475248
56738:-0.286307
56762:-0.205008
56854:0.169431
56922:-0.114812
56988:0.229971
57024:0.230988
57026:-0.368437
57052:0.13773
57067:-0.0869073
57088:0.12659
57476:0.278633
57517:0.741691
57604:0.189358
58012:-0.217512
58123:-0.00400616
58355:0.102771
58391:0.0540238
58507:0.301432
58583:0.289435
58598:-0.282844
58667:0.116535
58721:-0.353918
58731:-0.137253
58773:0.177204
58814:-0.146843
58825:-0.116511
58862:-0.465927
58881:0.0508394
58939:-0.157285
58946:0.0616339
58982:-0.117375
59064:-0.0561458
59077:0.279248
59113:0.224684
59223:0.125585
59275:-0.22858
59305:0.209628
59340:0.0138052
59375:0.233799
59508:-0.112802
59548:0.0389194
59585:-0.0167871
59688:0.611912
59739:0.121045
59895:0.119325
59979:-0.116346
60001:0.162857
60036:-0.355152
60146:0.11681
60224:-0.116586
60370:0.318074
60504:0.173163
60505:0.232362
60548:0.128138
60693:0.116542
61080:-0.176685
61137:-0.155885
61183:0.116724
61243:0.185258
61467:-0.0129433
61525:0.0753384
61556:0.232906
61596:0.11661
61710:0.0441431
61780:-0.117648
61781:0.135624
61840:0.196868
62026:0.081123
62112:-0.154439
62119:-0.0653847
62202:0.0684515
62250:-0.117531
62308:0.164381
62333:0.116517
62487:-0.0766571
62581:0.195316
62673:-0.0830064
62699:-0.160193
62860:0.0855709
62870:0.00607152
62938:-0.0929367
63053:0.0687081
63072:-0.178303
63092:-0.117831
63157:-0.102779
63159:-0.133845
63215:0.0627139
63226:-0.192617
63292:0.0214813
63390:0.044026
63459:-0.450287
63505:0.168366
63719:-0.0133839
63795:-0.197999
63799:-0.116811
63932:0.388524
63971:0.116537
64002:0.116764
64015:0.352355
64026:-0.200146
64343:-0.117113
64364:-0.154785
64518:-0.117196
64561:0.215591
64656:-0.084223
64727:0.160022
64757:0.0772476
64760:0.116108
64819:-0.00452584
64836:0.312379
64865:-0.0963673
65010:0.00163407
65020:0.140415
65166:-0.471017
65386:-0.224307
65417:0.0429217
65476:0.106577
65569:-0.375796
65668:-0.207015
65750:0.122964
65887:-0.1878
65968:-0.147003
66002:0.116909
66021:-0.209957
66093:0.163315
66125:-0.181653
66173:-0.155939
66207:0.257547
66466:-0.042479
66586:0.359591
66836:0.00334976
66966:-0.0142782
66990:-0.24505
67089:-0.0227578
67163:-0.108402
67258:-0.21101
67397:-0.239429
67408:-0.30187
67441:0.276405
67660:-0.0701741
67805:-0.130135
67985:0.195014
68316:-0.0150791
68352:0.217937
68459:0.236811
68504:0.11753
68608:0.118933
68636:0.11714
68735:-0.236559
68782:0.0471896
68862:0.158217
69007:0.24237
69028:0.112831
69214:0.106666
69237:-0.184067
69366:-0.19367
69400:-0.00130306
69402:0.164029
69518:-0.116161
69519:0.226106
69603:0.27006
69618:-0.0366846
69637:0.116615
69647:-0.026933
69755:-0.198494
69872:-0.0560918
69882:-0.279792
69924:-0.117101
69966:0.239527
70021:0.27447
70048:-0.00362833
70061:-0.103723
70084:0.421468
70092:-0.122845
70188:0.257612
70251:-0.145043
70277:-0.101183
70318:0.117286
70342:0.234683
70364:-0.352524
70398:0.114217
70408:0.215975
70440:0.165103
70465:0.0666184
70492:0.102896
70506:0.118025
70525:-0.293649
70624:-0.116943
70635:0.116319
70696:0.000138156
70725:0.367655
70862:-0.208418
71187:0.115744
71280:0.0234533
71464:-0.0705899
71569:-0.113714
71580:-0.116916
71612:-0.54814
71626:0.255921
71639:-0.118059
71801:0.155279
71836:-0.448496
71876:-0.0502655
71920:0.2379
71982:0.110189
72031:-0.134578
72040:0.117642
72059:0.0242525
72060:0.443944
72073:0.26878
72125:0.316754
72164:0.0268369
72167:-0.143891
72233:0.119619
72320:0.160676
72452:-0.427261
72466:0.122106
72540:0.11772
72625:0.421032
72626:0.230828
72806:-0.167522
72808:-0.11137
72824:-0.245586
72933:0.325268
73001:0.115627
73106:-0.11759
73199:0.00469343
73209:-0.139815
73327:0.115459
73346:-0.107913
73390:-0.1654
73602:0.123658
73650:-0.488993
73680:-0.0600989
73706:0.116521
73746:0.117716
73975:0.0814662
73990:0.0298629
74119:0.173409
74211:0.00682776
74215:-0.133482
74217:0.117607
74232:0.253681
74296:-0.117301
74409:-0.116233
74437:-0.216989
74493:-0.136025
74514:0.0112774
74525:-0.371976
74574:0.117998
74625:-0.0307203
74636:-0.203533
74672:0.00342827
74828:0.0974396
74835:0.207543
74888:0.197544
74940:0.553372
75029:-0.16552
75354:-0.100808
75391:0.185826
75402:0.256466
75405:-0.195024
75422:0.189072
75533:0.195068
76080:0.244821
76263:0.0731386
76346:-0.192721
76370:0.195833
76407:-0.0124156
76440:0.0125906
76545:0.0795434
76722:0.126829
76723:-0.00692891
76774:0.123174
76803:0.117277
76852:-0.199005
76891:0.00545026
76940:0.325151
77012:0.302177
77021:-0.468548
77056:0.15572
77113:-0.140458
77168:0.116413
77551:-0.044369
77631:0.0398335
77641:0.132195
77704:-0.0217057
77811:-0.0940761
77880:0.282802
77910:0.116449
77933:0.12762
77980:0.304552
78017:-0.0841085
78058:-0.203614
78089:0.0484892
78204:0.0543362
78206:-0.180588
78253:0.115753
78283:-0.104749
78518:0.153017
78531:-0.138385
78752:0.142712
78771:0.117078
78840:0.233194
78883:-0.134865
78902:0.18867
79058:0.168509
79106:0.117275
79118:0.117248
79142:-0.11859
79182:0.253969
79458:-0.171137
79537:-0.00222145
79648:0.219914
79705:0.000753939
79728:0.153136
79870:-0.130262
79899:0.581338
79966:0.0483173
80005:-0.221949
80059:-0.421026
80167:0.328191
80303:-0.205736
80310:0.11953
80316:0.230387
80348:-0.116032
80361:0.231546
80375:0.125137
80610:-0.391578
80635:0.0306883
80673:0.146638
80690:0.116905
80858:0.11651
80980:0.0806957
80987:-0.116704
81030:0.234769
81043:0.186222
81474:-0.112015
81750:0.114445
81913:-0.0188014
81993:-0.0155427
82245:0.208668
82303:-0.117353
82356:-0.00354025
82467:-0.320289
82491:0.205105
82548:-0.0939546
82576:0.110651
82646:0.11906
82716:0.318501
82748:0.119683
82832:0.0223068
83005:-0.0433325
83033:0.308093
83081:0.0285832
83092:0.233447
83330:-0.116745
83368:0.140206
83532:0.0370977
83783:-0.204987
83926:-0.0826991
84095:0.267775
84139:0.214298
84194:0.116527
84269:0.0991788
84273:0.0143213
84331:0.117895
84344:-0.117922
84353:-0.113125
84504:0.182015
84626:-0.0892816
84727:-0.157252
84772:-0.168968
85062:0.561935
85074:0.342082
85081:-0.0026652
85114:0.114657
85133:-0.192673
85150:-0.144113
85186:0.115999
85275:-0.118806
85306:-0.120433
85489:0.116643
85539:-0.00102925
85604:0.085761
85629:0.235116
85692:0.116131
85747:0.161044
85943:0.180064
85972:0.0555642
85986:0.116925
86258:0.240228
86270:0.115727
86274:-0.0482183
86304:-0.0337462
86411:-0.240209
86493:-0.00568743
86507:-0.0132642
86555:-0.174251
86572:0.151286
86626:0.215341
86634:0.0362812
86663:0.212283
86923:0.227109
87103:0.0901354
87227:0.170132
87250:-0.049319
87295:-0.0523485
87327:-0.0176661
87454:-0.115663
87469:0.1161
87729:-0.0993802
87795:-0.0746364
87912:0.00829689
87919:-0.176058
88029:0.0821906
88044:-0.0206577
88116:-0.415746
88197:0.202036
88198:-0.310594
88240:-0.071093
88316:-0.119289
88663:-0.0397818
88676:-0.209409
88697:-0.560636
88775:-0.103755
88837:0.360517
88847:-0.485286
88858:-0.199441
88945:-0.00175602
89010:-0.118709
89243:-0.174943
89297:0.117566
89515:0.114104
89520:0.236848
89618:0.26355
89620:0.232739
89644:0.0434695
90140:0.195128
90159:0.246756
90187:-0.137749
90245:0.0668117
90276:-0.412028
90291:0.142204
90370:-0.0867435
90538:0.117421
90554:0.0568715
90611:-0.117293
90711:0.0134853
90732:0.117533
90878:0.0432173
90908:0.112573
90953:0.224107
91080:0.215448
91432:0.156106
91461:-0.10693
91495:0.308668
91504:-0.0975776
91573:-0.101511
91721:-0.23201
91810:-0.0975333
91872:0.117905
91939:0.119466
91977:0.211746
91986:-0.0291307
92000:0.122415
92091:0.161826
92095:-0.211058
92148:-0.218625
92236:0.0155711
92261:0.118163
92300:-0.278364
92343:-0.0338362
92344:0.137917
92396:-0.117856
92411:-0.257245
92415:0.157368
92466:0.206258
92574:-0.00771931
92661:-0.324391
92680:0.0517094
92816:-0.144399
93057:0.119601
93077:0.234606
93121:0.0905632
93166:-0.16709
93214:0.315732
93287:0.109655
93313:0.214939
93480:0.177808
93503:-0.0240364
93505:-0.191211
93535:0.116406
93577:-0.463337
93738:-0.116414
93774:-0.11749
93787:0.116421
93865:0.119351
93878:-0.0978881
93982:-0.0893928
94003:-0.00418747
94246:-0.047675
94361:0.117454
94370:0.116343
94394:-0.179743
94453:0.116448
94480:-0.138806
94534:-0.0726224
94698:-0.311667
94700:-0.228109
94842:0.0987408
94944:0.116629
95104:-0.425561
95108:-0.155954
95116:0.117301
95128:-0.113816
95279:0.0552553
95437:-0.0463882
95574:0.226543
95575:0.112241
95629:0.110287
95688:-0.214826
95725:-0.0709606
95744:-0.201979
95824:-0.119485
95994:-0.0368741
95998:0.236647
96032:0.225278
96105:-0.156048
96134:0.158212
96269:-0.176173
96271:-0.230826
96275:0.249242
96283:-0.171857
96562:0.223613
96753:-0.200355
96830:0.164659
96867:-0.283626
96892:0.178104
96946:0.209675
96964:-0.11653
97124:-0.117476
97146:-0.234979
97222:0.234254
97429:0.296068
97432:-0.136691
97517:-0.0321052
97553:0.115553
97599:0.121044
97800:0.21367
97854:-0.250468
97900:0.117125
97988:0.11646
97994:-0.0339516
98067:0.249885
98070:0.289112
98076:0.11638
98117:-0.00882331
98123:-0.00137359
98162:-0.514218
98231:-0.0617773
98319:-0.112312
98329:-0.117029
98519:-0.0872013
98536:0.193844
98545:0.133087
98709:0.191603
99013:-0.116315
99028:0.115096
99148:0.581817
99258:-0.185827
99410:-0.11674
99458:0.0998616
99475:0.233873
99480:-0.284206
99710:-0.577962
99737:-0.17561
99813:-0.233338
99889:0.00827837
99923:0.168154
99939:0.116405
99981:-0.220173
100064:-0.0901884
100076:-0.000536806
100163:0.142827
100241:-0.119544
100261:-0.386892
100270:0.117515
100706:0.215522
100735:-0.115004
100743:-0.253865
100784:0.175037
100824:0.179316
100911:-0.253965
100931:-0.119068
100966:-0.0586722
101054:0.0580228
101137:0.116337
101145:0.0628533
101161:-0.32763
101237:-0.384545
101347:-0.141808
101547:-0.277466
101850:-0.122847
101865:0.144891
101929:-0.331169
101946:-0.119234
101964:0.100163
102045:-0.120497
102098:0.153552
102118:-0.210927
102211:0.116922
102365:0.118632
102400:-0.104854
102438:0.0545159
102459:0.00361204
102597:0.134756
102707:0.137295
102714:0.117092
102745:-0.157754
102899:0.0584734
102954:0.0157994
102973:-0.184291
103053:0.185558
103082:-0.273228
103085:0.0214017
103217:0.194139
103229:0.115819
103543:0.274135
103548:0.00814183
103872:-0.162042
103913:0.116217
103924:-0.0175142
104007:0.14525
104045:0.122272
104351:0.140196
104529:0.102904
104598:-0.02463
104661:0.0392284
104670:-0.365932
104722:0.216688
104942:0.116399
105000:0.0187434
105024:0.246953
105112:0.117296
105283:0.215953
105344:0.198584
105493:0.000828978
105530:-0.166192
105546:0.130727
105559:-0.0216458
105561:-0.116804
105672:0.0841561
105741:0.0584982
105752:-0.345229
105787:0.11928
105809:0.0632862
105891:-0.0975004
105925:-0.0747192
105949:-0.0837808
105970:-0.354856
106044:0.269103
106069:-0.0987877
106186:0.0125986
106199:-0.231463
106387:-0.086077
106459:0.057556
106497:0.693325
106603:-0.196361
106624:0.0786411
106694:-0.403477
106729:0.0682976
106803:0.141497
106964:-0.117156
106974:-0.0953589
107003:0.106686
107133:0.129207
107421:0.0850786
107459:-0.156513
107631:0.105058
107805:0.154551
107886:0.0108363
108053:-0.452234
108486:0.0828223
108588:0.0348501
108734:-0.00856706
108964:0.119602
109029:0.116368
109032:-0.438196
109107:-0.260103
109130:0.235301
109275:-0.131914
109298:0.0823031
109339:0.11656
109343:0.317549
109344:-0.0688139
109420:0.203904
109528:0.117359
109552:-0.0708027
109570:0.113834
109658:-0.000822831
109799:-0.118458
109976:0.000128641
110095:-0.0323008
110152:0.0468908
110188:0.0959885
110210:-0.11782
110589:-0.39056
110676:0.102048
110689:-0.0237586
110763:0.0120634
110823:-0.0553415
110876:-0.116754
110903:-0.0429683
111034:0.333871
111040:0.108256
111047:0.0159533
111116:0.269584
111222:-0.145501
111245:0.130558
111324:-0.109696
111329:-0.00422367
111406:0.120519
111648:-0.121387
111788:-0.116361
112056:-0.183686
112065:0.0593429
112143:-0.41659
112363:0.0260905
112365:0.128433
112583:0.0172518
112588:-0.257394
112614:-0.116069
112637:-0.148457
112664:0.179381
112832:-0.159884
112875:-0.334359
112919:-0.117702
112923:0.114567
112929:-0.164275
113072:0.25255
113077:0.0458367
113170:0.266702
113404:0.234905
113409:0.0706504
113463:0.020636
113560:-0.66639
113563:0.27602
113595:-0.0787107
113668:0.117757
113724:0.0756681
113732:0.0918345
113755:-0.11793
113961:-0.126632
113996:0.0982329
114033:0.0670177
114035:-0.269293
114179:0.0426213
114180:0.201616
114182:-0.0602659
114283:0.354019
114422:-0.15743
114470:0.117028
114572:-0.117541
114579:0.223733
114682:-0.0993879
114899:0.147902
114939:-0.0739731
115041:0.0811419
115049:-0.0898451
115063:-0.371167
115081:0.0741714
115114:0.00849703
115216:0.2281
115229:-0.11484
115329:0.118274
115331:0.120463
115378:0.118872
115472:0.332771
115488:0.10994
115682:-0.195461
115812:0.159474
116060:-0.13689
116188:0.283268
116256:0.22507
116318:0.225602
116412:0.0830108
116459:-0.194671
116478:-0.1921
116481:-0.35808
116543:-0.402212
116632:0.145555
116837:0.309698
116961:-0.116007
117004:0.0858825
117045:0.271048
117147:-0.298842
117177:0.281422
117224:0.0808013
117244:0.302836
117355:-0.117596
117362:-0.124102
117927:0.132183
117962:0.185997
118058:0.0804503
118146:-0.687752
118187:0.330783
118239:0.159323
118313:0.118129
118326:0.158546
118393:0.239573
118407:0.116586
118443:0.512794
118699:-0.0049166
118732:-0.0885883
119075:0.204561
119100:0.222422
119103:0.120281
119113:0.199235
119140:0.142864
119261:0.117401
119368:0.25494
119400:-0.079532
119450:0.214764
119475:0.108499
119499:-0.310419
119566:-0.143811
119623:0.0716168
119683:-0.0482825
119774:-0.192214
119818:-0.205138
119982:0.0643395
120068:-0.11785
120103:-0.118626
120256:-0.267763
120277:-0.0403712
120323:0.367125
120367:-0.206651
120519:0.145898
120805:-0.236089
120825:-0.116679
120889:0.300249
120974:-0.316481
121110:0.271253
121132:-0.0064162
121210:-0.0240628
121388:0.233904
121389:0.126817
121451:0.174333
121514:-0.332925
121578:0.048555
121598:0.123973
121696:0.114891
121746:-0.0159682
121779:0.0257264
121784:0.181238
121840:0.0578946
121913:0.323237
121935:-0.418437
121940:0.149342
121948:-0.101653
122191:-0.135602
122192:0.153933
122202:0.228247
122247:0.2174
122297:0.21622
122363:0.443095
122403:0.160346
122454:-0.142267
122590:-0.369232
122598:0.252288
122747:-0.236813
122782:0.122103
122878:0.187375
122886:0.235219
122908:0.11944
123007:-0.117404
123224:0.139441
123257:-0.182206
123276:-0.320417
123305:-0.116362
123411:0.216886
123480:0.139524
123519:-0.282696
123521:-0.117241
123647:0.155058
123706:-0.0809061
123731:-0.225423
123785:0.223034
123798:-0.116849
123847:0.162527
123872:-0.322027
123988:-0.13958
124000:0.0197846
124009:0.0249544
124228:0.0572129
124251:0.117187
124261:0.120752
124408:-0.0670535
124444:0.11894
124788:0.227072
124847:0.0799587
124848:-0.0913942
124854:0.139248
124858:-0.0489341
125025:-0.108327
125044:0.226918
125071:-0.1177
125115:-0.115918
125120:-0.405962
125180:0.117409
125660:0.24526
125670:-0.180201
125728:0.115984
125750:0.00221261
125752:-0.143866
125827:-0.218946
125923:0.231901
126061:-0.125035
126083:-0.131543
126092:-0.251964
126185:-0.11136
126300:-0.156892
126321:0.126494
126545:-0.020124
126727:0.116554
126852:0.116546
126890:0.117455
126979:0.168118
127067:0.177339
127126:-0.115594
127158:-0.434941
127281:-0.0974618
127301:-0.117613
127347:0.0144137
127375:0.0306564
127581:-0.1684
127582:0.0176169
127801:0.0826418
127845:0.234624
127957:0.181745
127969:0.116068
127974:0.115552
128051:0.119587
128071:0.265126
128095:-0.176995
128198:0.172223
128248:0.11704
128402:-0.152935
128444:-0.0385743
128490:0.0532334
128536:-0.011001
128619:0.0508761
128689:-0.47663
128733:-0.069287
128998:-0.270128
129305:-0.2223
129352:0.209893
129424:-0.0413826
129431:-0.407161
129453:-0.026532
129578:0.105608
129930:0.0780012
130071:0.115315
130176:0.118053
130193:0.117097
130279:0.00354702
130291:0.190593
130441:-0.0154859
130677:0.304456
130697:-0.0261197
130876:-0.114806
131018:0.224285
131283:-0.117515
131299:0.363371
131307:-0.117874
131342:0.11747
131458:-0.0507514
131463:0.0432047
131536:-0.0577282
131612:0.109757
131667:-0.116651
131697:0.317588
131901:0.0941834
131957:-0.0336133
132036:0.249737
132042:-0.00895435
132113:-0.00167647
132188:-0.0443722
132214:-0.181827
132283:-0.0854715
132288:0.142575
132299:-0.118469
132352:-0.0206494
132388:-0.118165
132509:0.116336
132550:-0.0989971
132559:-0.0594233
132611:0.144506
132683:-0.236665
132793:0.172235
132806:0.20829
132999:0.115849
133202:0.283849
133360:-0.0796109
133362:-0.00137894
133391:-0.0477615
133550:-0.116919
133663:-0.339104
133742:-0.199111
133754:0.0884152
133803:-0.334697
133865:-0.0428089
133973:0.0372943
133985:0.196286
134043:-0.165182
134055:0.0350025
134099:-0.0472549
134118:-0.118459
134122:-0.117447
134160:-0.173894
134183:-0.229635
134204:-0.210787
134254:0.162668
134310:-0.151642
134418:0.0473497
134423:0.121598
134464:0.124927
134513:0.119204
134606:-0.0891591
134652:0.124709
134837:0.0895539
134846:0.365927
134855:0.622644
134915:0.324962
134916:0.19657
134930:0.350559
134934:0.235078
135089:-0.117548
135144:0.0338383
135216:0.0246904
135327:-0.369213
135389:-0.219469
135411:0.117349
135555:0.0338553
135560:0.00637699
135561:-0.162425
135662:-0.136072
135670:0.0915711
135729:-0.00900806
135778:0.127273
135856:-0.338672
135884:-0.488322
135982:-0.0237437
136043:-0.426818
136045:0.198719
136227:-0.0295566
136297:-0.0453083
136361:0.226593
136372:-0.163377
136377:0.0801413
136380:0.201402
136492:-0.177669
136670:-0.168459
136786:0.185352
137063:-0.033742
137125:-0.266468
137164:0.116584
137227:-0.0272704
137340:0.117417
137365:0.233873
137422:-0.0171119
137489:-0.306424
137494:-0.0987638
137496:0.11653
137505:0.0266238
137614:0.118258
137694:0.116866
137778:0.224687
137832:-0.0189495
137848:-0.106523
137882:0.20936
137902:-0.189644
137910:-0.306681
137932:-0.163872
138222:-0.265595
138345:-0.0851204
138427:0.0531481
138428:0.255003
138472:0.509431
138516:0.222215
138551:-0.1062
138700:-0.131446
138874:0.271077
138911:0.286937
139035:-0.116037
139072:0.224205
139078:-0.121373
139116:0.156882
139156:0.116441
139179:0.0685504
139210:-0.347208
139303:0.238332
139332:-0.116852
139391:0.0172683
139577:0.0575267
139581:-0.119477
139696:0.220763
139878:-0.0240247
139892:-0.116777
139979:-0.241403
139999:0.122308
140360:-0.118127
140420:-0.117775
140434:-0.204425
140464:0.138807
140507:0.227469
140581:0.270599
140688:0.122596
140705:0.116563
140763:0.116524
141026:-0.29217
141033:-0.115575
141042:-0.269337
141051:-0.132958
141080:0.115043
141131:0.0535639
141164:0.357441
141178:0.179575
141204:-0.0515453
141244:-0.353876
141439:-0.447506
141486:0.213503
141526:-0.0639335
141547:0.116549
141645:0.149164
141739:0.0588861
141773:0.000590704
142044:-0.429991
142094:0.100613
142096:-0.450739
142127:0.281305
142147:0.214962
142159:0.0441624
142184:-0.220953
142219:-0.409495
142357:-0.0618339
142408:0.418617
142544:0.221424
142665:0.148205
142901:0.119041
142918:-0.383297
142986:0.459767
142996:0.311724
143099:-0.188453
143107:0.117087
143150:0.118017
143186:0.263642
143491:0.338274
143509:0.27561
143524:0.0495728
143604:-0.203999
143624:0.116059
143792:0.139082
143828:-0.0563757
144101:0.0391887
144345:0.117726
144375:0.0425266
144400:0.140366
144415:0.178843
144554:-0.118327
144612:-0.23432
144744:0.131535
144747:0.17323
144773:0.134874
144878:0.119899
144897:-0.280402
144955:-0.551707
144984:-0.245151
145114:0.00364646
145117:-0.116457
145189:0.120376
145363:0.326652
145404:0.116073
145463:0.1058
145518:0.0711144
145606:0.115247
145804:0.119816
145915:-0.0257842
145963:0.0400566
146010:0.336016
146056:-0.310625
146152:-0.0321052
146402:0.0440631
146428:-0.264493
146452:-0.0193664
146616:-0.190161
146630:0.0607314
146774:-0.416219
147102:0.231594
147184:0.357279
147253:0.00946661
147359:-0.272412
147423:0.117024
147450:-0.211741
147509:0.119174
147537:-0.117378
147562:-0.0855732
147585:0.233474
147681:-0.461781
147746:-0.0773905
147792:0.156652
147832:-0.368464
147930:-0.00387805
148054:0.116542
148139:-0.118618
148211:0.258199
148225:0.660418
148242:-0.0109517
148243:0.180763
148274:-0.0363532
148336:-0.12121
148356:-0.0980891
148418:0.0077678
148457:0.165788
148516:0.327524
148598:0.0161241
148696:0.21685
148701:-0.250676
148734:0.122223
148772:0.116414
149003:0.116259
149063:0.139676
149074:0.00448236
149161:-0.0578453
149219:-0.0628411
149280:0.0999131
149329:0.0710776
149506:0.19407
149550:0.139419
149608:0.0594914
149613:0.230892
149639:-0.450081
149680:-0.337839
149689:-0.00866404
149698:-0.241525
149734:0.210511
149810:0.119904
149813:-0.115678
149872:0.118166
149892:0.049559
149935:-0.0489028
149961:-0.117371
149984:-0.126065
150040:0.115077
150078:-0.119991
150133:0.144397
150218:0.160052
150246:-0.032172
150304:-0.115981
150353:0.022986
150388:0.146103
150443:-0.107142
150502:0.117669
150670:0.129039
150680:0.0744726
150705:0.0332719
150844:-0.282001
150885:0.116583
150928:0.0264616
151008:0.131344
151054:-0.153287
151164:-0.122267
151307:0.116855
151361:-0.0050741
151477:-0.114445
151543:-0.116923
151693:-0.291527
151703:-0.204354
151769:0.332839
151798:-0.194625
151821:0.03328
151887:0.117254
151906:-0.0163625
152001:-0.0995193
152049:0.2099
152078:-0.0210797
152134:0.117465
152344:-0.0171206
152466:0.152979
152582:0.117801
152901:0.116366
152948:0.117123
152978:-0.209651
153034:0.189121
153085:0.408126
153131:0.0149976
153259:0.421096
153272:-0.117422
153305:-0.295445
153316:0.056953
153326:0.0700048
153347:0.150683
153376:-0.117988
153391:0.103847
153421:0.260788
153478:0.123155
153518:0.175311
153632:-0.121029
153758:-0.117759
153895:0.118808
153970:-0.179055
154180:-0.0296826
154215:-0.116146
154588:6.53071e-05
154758:0.123858
154821:0.16053
154908:-0.0764523
154937:-0.207303
154992:-0.0770715
155008:0.259312
155051:-0.256487
155089:0.115537
155109:-0.116741
155124:-0.0745456
155305:-0.437434
155308:0.0468731
155338:0.119136
155402:0.0244459
155442:-0.213359
155455:0.0579378
155578:-0.0111052
155593:-0.275773
155652:0.0124343
155681:-0.140465
155735:0.117442
155791:-0.0722711
155879:-0.116731
155880:0.145592
156041:-0.117022
156089:-0.205447
156155:0.169081
156240:-0.357171
156315:0.119219
156325:0.148281
156513:-0.210698
156640:0.197616
156679:-0.0958571
156828:-0.367662
156845:0.19301
156949:0.116688
156954:0.119552
157084:0.0372702
157239:0.325892
157250:-0.0513656
157292:-0.000360722
157405:0.119464
157445:-0.0427862
157537:-0.130602
157586:0.120278
157680:-0.139738
157714:0.116525
157771:-0.211749
157782:-0.0368403
157988:0.117409
158154:0.131048
158161:-0.118148
158179:-0.00360989
158215:-0.104189
158250:-0.209732
158429:0.14816
158448:-0.115891
158909:0.325587
158969:0.337831
158990:0.187889
159004:0.270545
159188:-0.234455
159230:-0.0638862
159248:0.0989464
159303:-0.108678
159434:-0.489132
159443:0.143861
159479:0.264264
159525:0.142763
159542:0.0158624
159750:-0.0516301
159767:0.0872181
159921:0.00131889
159992:0.115227
160064:0.117021
160085:-0.224544
160098:-0.118371
160126:-0.274865
160232:-0.267243
160359:-0.268133
160410:0.116555
160425:0.0116675
160581:0.233583
160599:0.116942
160618:0.341435
160702:-0.00176679
160752:-0.0752971
160813:0.116558
160820:-0.2711
160918:-0.157912
161073:-0.282908
161213:-0.101653
161247:-0.0382928
161328:-0.00194485
161411:0.116092
161413:0.124621
161512:0.183864
161556:0.11664
161560:0.0433107
161582:-0.11814
161636:-0.448021
161792:-0.115703
161825:-0.00826693
161941:-0.00448073
162115:0.0579251
162140:0.270204
162398:-0.0785999
162419:0.363637
162509:0.118307
162587:0.236025
162595:-0.29386
162682:0.117591
162822:0.0240944
162827:0.115584
162920:-0.200022
163000:-0.216414
163031:-0.39632
163092:-0.124815
163182:0.214491
163265:-0.166305
163278:-0.174535
163281:-0.117848
163290:0.115998
163319:-0.113298
163436:0.0470777
163495:0.116018
163498:0.109227
163526:0.217534
163545:0.203757
163547:0.222162
163691:0.18931
163776:-0.201074
163823:-0.107065
163897:0.117564
163908:-0.126848
164017:-0.041604
164019:-0.0879219
164125:0.0590637
164152:-0.207126
164236:-0.120062
164244:0.0271216
164247:-0.288942
164248:-0.191021
164265:0.116555
164519:-0.119976
164521:0.143353
164645:-0.117396
164740:-0.184443
164776:-0.197621
164802:-0.809458
164906:0.0995231
164946:0.457559
165017:0.0613356
165066:0.116556
165074:-0.0236642
165114:-0.208203
165118:0.116535
165380:-0.0285682
165430:-0.151269
165539:0.108003
165542:-0.0494181
165548:-0.118809
165551:0.116329
165564:0.217972
165597:-0.371045
165622:-0.136851
165703:-0.21582
165721:-0.00679106
165792:-0.175984
165795:0.0944652
166087:0.181505
166197:0.234221
166280:-0.0536946
166340:-0.109249
166446:-0.116066
166497:-0.173103
166610:-0.117655
166771:-0.19828
166873:-0.218241
166907:-0.219605
166927:0.153342
166936:0.00329356
166988:0.148016
167057:-0.115297
167184:-0.0824083
167291:-0.113639
167322:0.191494
167412:0.190297
167501:0.111853
167620:0.233366
167627:-0.240175
167662:-0.0627603
167696:-0.204368
167726:0.117812
167754:0.20912
167913:-0.144208
167965:-0.11763
168090:-0.000822373
168124:0.36876
168147:-0.200084
168188:-0.0360897
168190:0.273018
168342:0.458326
168384:0.117162
168650:0.0519146
168734:-0.117092
168746:3.26474e-05
168751:0.212681
168896:0.00458078
168902:0.119482
168977:0.0658772
169057:-0.24517
169081:-0.0131922
169115:0.18558
169180:0.190725
169276:-0.049588
169306:0.120103
169378:0.088613
169443:-0.119225
169553:0.12117
169630:-0.212279
169690:-0.0881983
169792:0.204427
169803:-0.120534
169994:0.15225
170025:0.117159
170044:-0.141802
170209:0.181326
170258:-0.00187075
170451:0.124053
170504:0.124489
170527:-0.116321
170698:-0.185008
170722:-0.25667
170755:0.128039
170764:0.130716
170817:-0.113887
170867:0.0737805
171154:0.0286505
171190:0.186655
171360:-0.11863
171477:0.226843
171572:0.0682484
171635:0.204326
171900:0.0428824
171918:-0.0284083
172069:0.0820217
172097:-0.159343
172312:-0.0720443
172321:0.0144812
172329:-0.0349602
172341:0.0235265
172354:0.117263
172357:0.0501941
172533:-0.0280919
172556:0.118942
172559:-0.301535
172586:-0.00110164
172617:0.192177
172709:-0.51877
172783:-0.199661
172804:-0.23638
172902:-0.328728
172903:-0.0651297
172907:0.153079
172943:0.389886
173006:-0.117311
173029:-0.016894
173030:0.0823158
173080:-0.0356541
173096:-0.117317
173341:0.19627
173397:-0.166092
173475:-0.0443292
173702:-0.448307
173771:-0.000138484
173779:-0.158286
173782:0.235612
173932:-0.0238709
173938:0.252731
174003:0.163842
174063:0.0971526
174106:0.0628828
174167:0.117316
174202:0.128354
174245:0.0711969
174290:-0.117254
174363:-0.117194
174396:0.0538977
174431:0.116846
174504:0.0289589
174517:0.301753
174690:-0.0433753
174710:-0.0260885
174752:0.0508275
174801:0.117536
174888:-0.00300002
174895:-0.257164
174954:0.231922
175003:0.0822876
175021:0.141124
175263:0.0936267
175310:-0.307244
175447:0.116009
175452:0.0655585
175518:-0.11671
175596:0.129737
175787:0.00180528
175914:0.100092
175964:-0.0663289
176085:-0.281006
176124:0.026396
176229:-0.295632
176252:-0.118089
176311:-0.204644
176373:-0.00802107
176417:0.0831349
176609:0.116306
176615:-0.119322
176711:-0.119335
176792:0.119719
176837:0.246029
176856:0.129238
176887:0.221966
176926:0.257268
176934:-0.0275545
176979:-0.444641
177079:-0.108027
177305:-0.117355
177382:-0.223654
177448:0.0539821
177523:0.0341062
177564:-0.20689
177658:0.11665
177670:-0.205951
177780:0.0403554
177800:0.116615
177816:-0.150232
177822:-0.013426
177837:0.110401
177846:0.117339
177968:-0.119006
177980:0.118018
178016:0.0250863
178080:-0.306593
178124:0.236549
178126:0.101539
178181:-0.175258
178226:0.387251
178291:0.116392
178378:0.381582
178403:0.304959
178550:0.215508
178597:-0.103201
178694:0.14252
178743:0.331554
178744:0.339297
178771:-0.132549
178854:0.181878
178906:-0.248722
178919:0.000633843
179087:-0.0969499
179479:0.236796
179485:0.171899
179548:0.111923
179566:0.116532
179569:0.137251
179570:-0.0537758
179686:-0.044375
179852:-0.38668
179877:-0.0709733
180053:0.0289355
180118:0.116195
180159:0.185195
180211:0.117419
180221:0.145284
180293:0.113769
180306:-0.0332103
180420:0.0429997
180520:-0.038249
180525:0.227434
180727:-0.139847
180794:0.344715
180871:0.238546
180875:0.022778
181072:-0.179917
181287:0.120528
181399:0.236192
181543:0.0549565
181551:0.147086
181641:0.116881
181651:0.248993
181702:0.119371
181788:0.092205
182090:0.312032
182181:-0.234346
182386:-0.11089
182433:-0.025887
182436:-0.117353
182479:0.170268
182571:-0.155867
182588:0.116777
182592:-0.115998
182850:0.232144
182883:0.168413
183033:-0.118577
183158:-0.0758176
183173:-0.0128264
183259:0.238468
183439:-0.155951
183522:0.155453
183570:-0.00563584
183701:-0.052271
183719:-0.116991
183726:-0.047868
183880:0.0246072
184065:-0.217139
184103:-0.0249256
184177:0.104219
184185:0.125723
184255:0.249896
184394:0.00258468
184565:0.10304
184614:0.00693533
184761:0.19547
184902:-0.294678
184905:0.0440156
184969:-0.263714
185019:0.00271934
185108:0.139193
185126:-0.101605
185205:0.168299
185274:-0.0834645
185452:-0.11725
185457:0.017013
185608:0.29791
185621:-0.119507
185649:0.389694
185650:0.115158
185652:-0.273214
185705:-0.407117
185718:-0.183005
185735:0.0184397
185749:-0.30931
185789:-0.117326
185926:-0.217266
186230:0.236392
186343:0.00644298
186358:0.0070417
186369:-0.0640686
186463:-0.121614
186473:-0.187688
186606:-0.139927
186651:-0.214784
186678:0.117001
186823:0.102985
186891:-0.116812
186955:0.364452
186956:0.202503
187041:0.230497
187044:0.116651
187052:0.213482
187066:0.0987904
187182:-0.0330412
187227:0.10808
187428:-0.194383
187588:0.111448
187592:0.302112
187854:0.200759
187908:0.240779
188005:0.547366
188114:0.117993
188126:0.119151
188168:0.181562
188249:0.141856
188282:0.113567
188284:-0.135778
188402:-0.0819936
188455:0.0223339
188512:-0.18875
188570:0.117983
188769:-0.360309
188858:0.11617
188917:-0.341547
188998:7.12182e-05
189066:-0.281329
189232:-0.0620958
189261:-0.0298593
189275:0.242611
189379:-0.124539
189481:0.233996
189503:0.02808
189551:0.0543239
189571:-0.117986
189661:-0.119567
189698:0.265626
189750:0.0773643
189770:-0.163937
189819:0.125987
190004:0.117151
190053:0.203104
190060:-0.230738
190264:-0.0660483
190306:-0.0899433
190315:0.1357
190368:-0.204281
190445:-0.104879
190487:-0.0208956
190561:0.11305
190565:-0.104506
190613:0.148248
190615:0.120218
190661:-0.358767
190683:-0.206181
190721:0.094396
190796:-0.255946
190801:-0.0356927
190876:0.206328
190900:0.0135802
190939:0.116452
190952:0.0354295
190990:-0.151588
190997:0.0366259
191002:-0.269074
191014:-0.0183941
191026:0.187609
191116:-0.0893179
191146:0.119278
191346:0.353539
191462:-0.179622
191599:0.0932101
191641:0.0498879
191717:-0.144971
191734:0.258805
191738:0.13456
191916:0.00955802
191927:0.0362884
191932:-0.206551
191945:-0.110677
191956:0.014142
191982:-0.0722298
192084:0.122299
192152:-0.109954
192154:-0.0250484
192186:-0.382555
192349:0.0267015
192413:-0.0908111
192583:-0.129242
192593:0.236282
192600:-0.0261954
192704:0.168772
192754:-0.0982618
192765:-0.118585
192875:0.168387
193020:0.118728
193021:-0.273448
193062:-0.0936093
193073:0.423735
193124:0.199576
193149:0.114826
193236:0.11703
193277:0.181501
193451:0.188657
193478:-0.112151
193682:-0.181266
193744:0.164968
193812:-0.0712698
193937:0.0363815
193990:-0.318776
194101:0.0757258
194152:-0.0479863
194363:-0.0748322
194460:0.225799
194468:-0.234384
194584:0.182484
194625:-0.00948371
194676:0.115944
194778:-0.200375
194860:0.120151
194992:-0.15889
195074:0.146481
195223:-0.00545684
195307:-0.153539
195347:0.11907
195406:0.261129
195432:0.117725
195459:-0.106986
195584:0.116873
195669:-0.000355526
195755:0.0798644
195770:0.0125036
195786:-0.182639
195852:-0.0685558
195955:0.118529
195964:0.179185
196052:0.104851
196117:-0.0442812
196291:0.112428
196352:-0.246148
196473:-0.148878
196476:0.236088
196551:0.231012
196618:-0.120422
196856:-0.208174
196903:0.315664
197037:-0.57265
197131:-0.0825329
197161:-0.323492
197196:-0.351804
197371:-0.11707
197549:0.116542
197558:0.10612
197588:0.0881986
197597:-0.211515
197713:-0.281493
197726:-0.0771495
197758:0.118429
197792:0.0170541
197959:0.216853
197995:-0.118246
198014:0.172551
198129:0.11655
198261:-0.117755
198303:-0.180323
198357:-0.121065
198475:-0.147837
198546:0.0139236
198662:0.121121
198744:-0.163261
198769:-0.0561756
198830:0.0542305
198890:-0.160543
198986:0.197755
199055:-0.184068
199081:0.139193
199137:-0.116235
199146:-0.173969
199163:-0.195083
199169:-0.140926
199202:0.116997
199213:-0.119637
199270:0.251648
199573:0.0402336
199639:-0.059904
199737:-0.0716854
199879:-0.0664238
199902:0.228638
200104:0.226354
200200:-0.180147
200259:0.120341
200813:-0.368067
200925:-0.29419
201004:-0.117293
201017:0.120364
201116:0.114802
201121:0.114102
201155:0.119334
201171:-0.00392707
201314:-0.029026
201392:0.183382
201464:0.0886512
201616:0.0040277
201642:0.0132576
201724:0.116561
201789:-0.372943
201880:-0.0923567
201910:0.175104
201991:-0.181658
201999:-0.0184699
202028:0.0384393
202163:1.36672
202233:-0.117588
202342:-0.0334067
202344:-0.000916995
202500:-0.431562
202590:0.235068
202600:-0.0205694
202612:-0.338092
202640:-0.0433759
202687:-0.030765
202733:0.198007
202805:-0.146899
202831:-0.00374423
202859:0.345716
202877:-0.390146
202950:0.276881
203161:0.230686
203227:-0.219875
203235:-0.127876
203279:-0.103731
203379:0.0124196
203460:0.0605767
203480:0.228308
203483:-0.204666
203502:0.338618
203564:0.0695835
203604:0.0110171
203614:0.227747
203656:0.0752398
203840:0.116328
203920:0.0742028
203980:-0.114684
204049:-0.117072
204107:-0.108873
204110:-0.184536
204122:-0.116614
204166:0.0648719
204233:-0.107064
204285:0.0591943
204365:0.230082
204397:-0.0606726
204406:0.192036
204471:0.267809
204472:-0.31767
204476:0.116188
204803:-0.341503
204854:-0.177195
204892:-0.116155
204896:-0.118371
204952:-0.118043
205072:-0.119557
205097:0.107075
205277:0.134349
205328:-0.119419
205341:-0.116383
205492:0.119056
205496:-0.231196
205600:0.190721
205625:-0.401269
205778:0.222075
205855:-0.0374722
205893:0.0756803
206018:-0.290028
206038:0.116194
206281:0.117278
206578:0.116702
206692:0.0757182
206706:0.11726
206764:1.32481
206992:0.14349
207085:-0.115156
207106:-0.306665
207118:-0.086979
207155:-0.166828
207289:-0.153845
207331:-0.226637
207453:0.117165
207483:-0.0357252
207519:-0.101201
207557:0.233311
207630:-0.273838
207744:0.230347
207764:0.236812
207987:0.13618
207998:-0.117333
208127:0.226586
208164:-0.109976
208538:-0.194857
208558:0.235859
208559:0.205214
208565:0.188829
208608:0.182638
208766:0.164726
208820:-0.0462143
208842:-0.208573
208853:-0.16871
209081:-0.0173228
209117:0.0251392
209226:-0.118262
209273:-0.117792
209318:-0.0832031
209372:-0.153671
209380:-0.252529
209393:0.064841
209490:-0.132409
209598:-0.151933
209752:0.117807
209870:-0.326893
209924:-0.306438
209968:-0.168284
209996:0.199722
210037:-0.265988
210056:0.00206026
210181:-0.209544
210286:-0.233346
210306:-0.042157
210406:-0.192536
210520:-0.041473
210688:-0.0483751
210922:0.0346061
211111:-0.0582671
211148:-0.337029
211185:0.00645512
211333:0.0774889
211345:0.119072
211435:0.36876
211485:0.274936
211521:-0.106232
211536:-0.200189
211630:0.178459
211898:-0.129985
211961:0.143501
212091:0.204667
212094:0.0381598
212172:-0.139211
212275:0.403261
212473:0.0772317
212478:0.352903
212748:-0.130377
212937:-0.115493
212967:-0.107264
213085:-0.335674
213114:-0.38549
213123:-0.233646
213303:0.104745
213334:-0.0183397
213500:-0.192087
213586:0.0799124
213597:-0.0128639
213711:0.109426
213765:0.1149
213790:0.00977279
213894:-0.00739083
213969:0.104277
214003:-0.142722
214082:-0.0811143
214103:0.148366
214256:-0.190016
214262:-0.394369
214274:-0.188615
214306:0.107977
214417:0.235767
214438:-0.209112
214551:0.145768
214568:-0.314841
214618:0.115146
214663:0.196756
214737:0.0668934
214757:0.0535794
214789:-0.117714
214820:0.0350512
214875:-0.0972915
215051:0.292944
215124:-0.0650509
215146:-0.118206
215162:-0.117613
215304:-0.013452
215343:0.113475
215422:0.0946692
215624:-0.0721162
215656:0.406485
215675:-0.271954
215699:0.0247798
215708:0.244013
215908:-0.122932
215944:-0.116696
215990:0.156378
216022:0.134074
216072:-0.314382
216089:-0.215209
216190:0.107707
216191:0.116967
216266:0.113338
216272:-0.315053
216290:-0.0535063
216341:0.177592
216725:0.0326433
216809:0.135277
216844:-0.116447
216856:0.0139332
216887:-0.264527
217030:0.351883
217363:-0.171855
217423:0.0887921
217450:-0.124771
217500:-0.200263
217520:-0.105867
217539:0.234663
217651:-0.217771
217780:-0.158202
217783:-0.389872
217858:-0.11529
217967:0.14418
217974:-0.132899
218018:-0.0421032
218092:-0.292658
218247:0.0663567
218250:0.11629
218263:-0.247647
218306:-0.0205461
218393:-0.169578
218403:0.000290304
218575:-0.295837
218582:0.037386
218632:-0.00664104
218738:0.131229
218835:-0.318074
218844:-0.171854
218883:-0.125461
218904:0.183244
218915:-0.194738
218951:0.116473
218971:-0.306724
219005:0.0430103
219049:0.290461
219183:0.00848061
219200:-0.0258645
219313:-0.489043
219320:-0.153675
219353:0.233621
219399:0.116344
219403:-0.120386
219418:-0.326007
219443:-0.117367
219584:-0.492353
219629:-0.21971
219786:0.105852
219789:0.198693
219815:0.197506
219869:-0.292094
219968:-0.165635
220004:-0.160102
220011:0.146891
220127:0.116699
220238:-0.0732593
220281:0.456359
220282:0.0646256
220475:0.0450807
220596:0.148351
220621:-0.241193
220673:-0.1505
220864:0.118537
220882:0.0712572
220908:-0.431049
221063:0.265609
221102:0.0197087
221105:0.0956324
221116:0.344192
221144:0.134665
221183:-0.151848
221353:0.117032
221636:-0.114444
221721:-0.215774
221873:0.133484
221950:-0.357913
221997:0.0731728
222017:0.307238
222136:-0.116959
222308:-0.00689693
222318:0.220611
222363:-0.422013
222436:-0.119518
222675:0.0730618
222748:-0.263822
222825:0.227637
222830:0.116506
222836:-0.429591
222837:-0.0129136
223081:-0.203213
223106:0.00556269
223137:-0.223703
223152:0.234383
223269:-0.0171224
223513:-0.144499
223574:-0.00314052
223669:0.302507
223722:-0.119133
223753:-0.180752
224058:-0.0532812
224252:0.184025
224444:-0.4916
224612:0.0885617
224636:-0.260109
224637:-0.0121719
224656:0.366888
224785:0.11549
224891:-0.287169
224895:-0.0264022
224957:-0.115771
224993:0.227617
224999:-0.117797
225078:0.0188408
225086:-0.163009
225410:0.012914
225425:-0.442426
225511:0.0403824
225521:0.205681
225525:0.116136
225594:0.138429
225704:0.0559167
225786:-0.115292
225831:-0.189213
225855:0.0103302
225942:-0.192622
225975:0.115354
226035:-1.02963
226063:-0.222104
226128:-0.337704
226182:0.145996
226190:-0.116268
226248:-0.0281704
226489:0.0766379
226579:0.118213
226595:-0.213927
226640:-0.225769
226652:0.204379
226676:0.194405
226681:0.218848
226764:-0.000660114
226781:-0.00194783
226811:-0.00638321
226844:0.188116
226889:-0.289449
227018:0.135016
227116:-0.501729
227371:0.0138559
227406:-0.00297211
227545:0.510813
227781:-0.116333
227823:0.184097
227893:-0.00109653
227920:0.334629
227991:0.104793
227995:-0.111781
228121:0.359649
228369:0.11652
228457:0.186791
228545:0.277966
228557:-0.109361
228608:3.02662e-05
228676:0.290322
228725:0.152044
228835:0.187246
228847:-0.0801529
228978:-0.116909
229022:-0.0164191
229024:0.116307
229060:-0.000897914
229149:-0.076359
229163:0.214942
229170:-0.152661
229272:0.191383
229368:-0.117397
229421:0.277051
229498:0.130437
229708:-0.115084
229918:-0.36907
230100:-0.116981
230269:0.176073
230470:0.0150775
230524:-0.117012
230638:0.119297
230639:-0.24265
230650:-0.388204
230697:-0.124237
230769:0.274017
230968:-0.175571
231026:-0.055558
231029:0.115103
231080:-0.0365467
231114:0.100317
231126:-0.109598
231201:0.0288353
231308:-0.118845
231325:-0.116883
231444:0.11657
231520:0.231862
231606:0.357907
231767:0.15852
231801:0.242706
231899:-0.00574484
232030:0.116138
232063:-0.335335
232173:-0.29685
232187:0.284006
232281:-0.165303
232283:0.194598
232308:-0.564551
232397:-0.39201
232536:-0.176244
232546:0.116916
232778:-0.0903767
232815:0.116112
233107:0.120168
233144:0.0375693
233153:-0.345136
233207:-0.333187
233248:0.213148
233450:-0.00449841
233516:0.119566
233554:0.231094
233563:-0.000360844
233940:-0.452479
234177:-0.167074
234236:0.160633
234282:-0.110047
234284:-0.465509
234355:0.0521619
234481:0.1009
234577:-0.0184292
234649:-0.117432
234708:0.00138687
234738:-0.233784
235155:-0.0830673
235340:0.323024
235349:0.118238
235355:0.189604
235443:0.124034
235511:-0.274763
235519:0.116823
235522:-0.0737019
235584:-0.187077
235670:0.0105116
235756:0.118791
235821:0.248859
235892:-0.0262106
235948:0.115591
236025:-0.114573
236154:0.0249555
236348:0.11627
236382:0.121889
236422:-0.116302
236492:0.118715
236625:-0.116818
236744:0.317935
236920:-0.183587
237067:-0.0340706
237131:-0.238597
237383:0.0344257
237403:0.22785
237556:0.22262
237599:-0.0519307
237756:-0.267736
237806:0.0233335
237878:0.118291
237883:-0.116512
237932:0.110754
238058:0.184872
238227:-0.160101
238297:0.0249855
238440:-0.120376
238504:-0.000338504
238515:-0.320043
238532:0.0771861
238533:0.0840379
238726:-0.111287
238841:-0.107221
238863:-0.125554
238883:-0.00512458
238931:-0.0418209
238951:0.154976
238987:0.239749
239016:0.0843552
239181:0.117121
239213:-0.249277
239313:0.0441426
239357:0.127133
239654:-0.0321052
239982:0.118638
240089:0.113558
240091:0.136451
240098:0.114728
240179:-0.209524
240190:0.2584
240289:0.191479
240359:-0.009752
240488:-0.310081
240523:0.219847
240568:-0.178377
240572:0.120642
240613:-0.254178
240767:-0.164943
240795:0.120887
240850:0.116921
241030:0.120044
241076:-0.343805
241280:0.0607427
241332:-0.0855819
241379:0.288143
241428:0.135873
241539:0.0703541
241600:0.123025
241602:-0.116417
241610:0.053544
241616:0.116565
241685:0.0979551
241772:-0.0455422
241840:-0.27404
241945:-0.177669
241960:-0.102261
242044:0.116051
242083:-0.0458667
242155:0.00498601
242280:-0.118077
242312:0.0712233
242401:-0.0648352
242623:-0.0409508
242646:-0.163797
242671:0.134868
242777:-0.382031
242931:0.0759416
243115:0.00864312
243268:0.361224
243352:0.229279
243370:0.116729
243379:0.214081
243382:-0.116569
243484:-0.0321004
243580:-0.0126887
243604:-0.119168
243817:-0.111921
243822:-0.218427
243945:0.154246
243950:-0.0561634
244116:0.126135
244194:-0.0014982
244216:-0.206994
244272:0.0644603
244287:-0.0214476
244320:0.321628
244390:-0.257712
244410:-0.00060246
244465:0.358815
244570:-0.117909
244727:0.276753
245116:-0.0793582
245163:-0.155783
245200:0.117032
245235:-0.317579
245256:0.261962
245316:-0.678092
245391:-0.151101
245405:0.116415
245635:0.194152
245905:0.11895
246004:-0.118145
246030:0.106314
246142:-0.22062
246197:-0.118
246211:0.101862
246348:0.0423607
246427:0.0701337
246598:-0.504555
246814:0.146369
246861:0.182901
246876:-0.219648
246884:0.257268
246896:-0.340785
246912:-0.117131
246973:-0.019207
247017:0.149668
247124:-0.223534
247130:-0.165376
247158:-0.342796
247202:-0.0376318
247316:-0.0639928
247384:0.230517
247389:-0.198787
247486:-0.156331
247638:-0.146691
248022:0.00116601
248039:-0.256725
248043:0.0147097
248092:-0.0838725
248094:0.176435
248137:-0.0392006
248141:-0.327207
248158:0.150181
248176:0.223188
248500:-0.195962
248532:0.00824486
248551:-0.198935
248618:0.11644
248668:0.138384
248862:0.016117
248985:-0.176119
248998:0.0457585
249006:0.11707
249110:0.155969
249136:0.201234
249160:-0.0638632
249268:0.165149
249270:-0.180388
249271:0.0755375
249363:0.0201594
249404:-0.110458
249407:-0.279291
249456:-0.0559083
249458:-0.275464
249535:1.36672
249555:-0.00346064
249636:0.115899
249644:0.187668
249726:-0.00209223
249899:-0.0793476
249901:-0.0106224
249908:-0.224446
249936:0.0160449
250044:0.0961165
250119:-0.11809
250438:0.220822
250466:-0.0479367
250524:0.231407
250530:0.0228888
250535:-0.0413927
250547:0.193794
250665:0.304252
250677:0.0641298
250762:-0.0751889
250979:-0.0564962
250997:0.13806
251005:0.274295
251227:0.0933427
251238:-0.0607036
251436:-0.0971242
251454:0.215089
251464:0.118445
251474:-0.0967045
251554:0.0581517
251624:0.0103841
251682:0.2273
251696:-0.033528
251707:0.219055
251828:0.191267
252062:0.198079
252226:-0.118536
252240:0.35912
252368:-0.164272
252406:-0.116869
252407:-0.00203261
252474:-0.00460543
252548:0.112091
252609:-0.0852946
252614:0.2042
252618:0.33954
252656:0.168979
252692:0.13018
252704:0.117477
252782:-0.219915
252807:0.104971
252811:0.159478
252861:0.100888
252885:-0.170265
252982:-0.119012
252986:-0.245642
253008:0.186111
253013:0.0220227
253044:0.157806
253062:-0.166832
253128:0.0243683
253206:-0.0597541
253278:0.0554225
253307:-0.385271
253331:-0.294576
253361:0.11749
253436:-0.183334
253499:-0.116064
253560:-0.240032
253589:-0.169683
253639:0.0480015
253660:-0.2711
253704:-0.18368
253708:-0.159071
253715:0.186398
253909:0.119877
254083:0.0274296
254143:0.162615
254181:-0.244416
254204:-0.0733852
254376:-0.142342
254439:0.0737228
254457:0.116717
254640:0.0993772
254837:0.245287
254874:-0.266136
254941:-0.18362
255023:-0.237349
255191:0.153112
255215:0.214436
255550:0.282587
255730:0.204893
255838:0.188755
255908:-0.161975
255983:0.289082
256501:-0.00714488
256564:0.230192
256583:-0.117565
256608:-0.117448
256631:0.168704
256672:-0.336869
256787:0.0558929
256864:0.231145
256932:0.115969
256966:0.138216
256971:0.191513
257004:0.116462
257047:0.116437
257102:0.11679
257157:-0.278519
257179:-0.0125889
257401:0.119956
257406:-0.135941
257493:0.308777
257495:-0.232688
257538:-0.061289
257630:0.257813
257639:0.116595
257768:0.187802
257864:-0.191384
257923:-0.186835
258083:-0.509719
258101:-0.0954035
258107:-0.11316
258135:0.205977
258158:0.209913
258213:0.25448
258251:0.115821
258271:0.116317
258281:-0.13399
258323:-0.128756
258325:-0.146027
258327:-0.131339
258333:0.0392457
258484:-0.21763
258511:-0.0365215
258546:-0.229215
258797:-0.00327127
258984:0.11686
259052:-0.119781
259058:0.116289
259296:0.11976
259410:-0.117203
259452:0.0877702
259525:0.117209
259541:-0.306879
259558:0.205828
259585:-0.00667233
259616:0.200923
259819:0.342672
259899:-0.0374796
260040:-0.0698241
260163:0.201676
260225:0.183292
260236:0.11704
260244:0.116887
260298:-0.159309
260319:0.279534
260337:0.171046
260365:-0.215196
260405:0.117958
260451:-0.161294
260533:-0.159193
260536:0.0573791
260556:0.0376853
260614:-0.0822783
260657:0.000731051
260735:-0.073799
260781:0.105469
260901:-0.259964
260929:-0.365686
261031:-0.382542
261034:-0.118145
261047:-0.0149015
261135:-0.0237131
261236:0.502138
261448:0.116828
261489:0.116142
261595:0.12002
261686:0.189446
261701:-0.379826
261704:-0.207842
261786:0.159793
261880:0.180221
261937:0.0741752
262036:0.021859
